DATE: 2007-10-12 CONTRIBUTOR: G. Ziegenhain, gerolf@ziegenhain.com CITATION: Mishin, Phys Rev B, 63, 224106 (2001)
#-> LAMMPS Potential File in DYNAMO 86 setfl Format <-#
# Mishin Cu EAM1 PRB(2001)63:224106
1 Cu
10001 0.00016401626143851118 10001 0.01439856014398560064 88.10863999999999407472
1 63.54999999999999715783 57.84000000000000341056 FCC
0.00000499999999981071
-0.00174266214468467274
-0.00348892099090725551
-0.00523377758263158556
-0.00697723296322029160
-0.00871928817543170080
-0.01045994426141634050
-0.01219920226272535636
-0.01393706322030210075
-0.01567352817448990077
-0.01740859816502855067
-0.01914227423105090836
-0.02087455741109203039
-0.02260544874308375099
-0.02433494926435164976
-0.02606306001162314243
-0.02778978202102388301
-0.02951511632807490501
-0.03123906396769941460
-0.03296162597421523066
-0.03468280338134346191
-0.03640259722220452743
-0.03812100852931303574
-0.03983803833458916810
-0.04155368766935201019
-0.04326795756431689455
-0.04498084904960476110
-0.04669236315473586363
-0.04840250090862815990
-0.05011126333960429918
-0.05181865147538791683
-0.05352466634310189958
-0.05522930896927458200
-0.05693258037983234959
-0.05863448160010560628
-0.06033501365483005113
-0.06203417756813928846
-0.06373197436357251611
-0.06542840506407296419
-0.06712347069198425220
-0.06881717226905650908
-0.07050951081644366014
-0.07220048735470013801
-0.07389010290379058321
-0.07557835848307747906
-0.07726525511133382207
-0.07895079380673510061
-0.08063497558686161248
-0.08231780146869982495
-0.08399927246864261066
-0.08567938960248715208
-0.08735815388543752280
-0.08903556633210536753
-0.09071162795650630772
-0.09238633977206629766
-0.09405970279161367242
-0.09573171802738789093
-0.09740238649103644120
-0.09907170919360963612
-0.10073968714557089699
-0.10240632135679023085
-0.10407161283654388362
-0.10573556259352034914
-0.10739817163581463766
-0.10905944097092953871
-0.11071937160578297632
-0.11237796454669382595
-0.11403522079939749923
-0.11569114136903839440
-0.11734572726016728739
-0.11899897947675003307
-0.12065089902216137585
-0.12230148689918450555
-0.12395074411001802406
-0.12559867165626975583
-0.12724527053895812179
-0.12889054175851474837
-0.13053448631478434261
-0.13217710520701966836
-0.13381839943389164937
-0.13545836999347871110
-0.13709701788327574579
-0.13873434410018983809
-0.14037034964053954345
-0.14200503550005966202
-0.14363840267389949013
-0.14527045215661718580
-0.14690118494219081557
-0.14853060202401197065
-0.15015870439488260280
-0.15178549304702645961
-0.15341096897207565086
-0.15503513316108211151
-0.15665798660451341062
-0.15827953029225017012
-0.15989976521359058892
-0.16151869235725085927
-0.16313631271136033729
-0.16475262726346739939
-0.16636763700053824877
-0.16798134290895327947
-0.16959374597451251643
-0.17120484718243247912
-0.17281464751734887386
-0.17442314796331528925
-0.17603034950380225254
-0.17763625312169975534
-0.17924085979931750345
-0.18084417051838216906
-0.18244618626004063811
-0.18404690800486120383
-0.18564633673282784909
-0.18724447342334715749
-0.18884131905524692563
-0.19043687460677105605
-0.19203114105558860558
-0.19362411937878598600
-0.19521581055287226536
-0.19680621555377972309
-0.19839533535685646704
-0.19998317093687786872
-0.20156972326804009632
-0.20315499332395756116
-0.20473898207767168844
-0.20632169050164528290
-0.20790311956776216795
-0.20948327024733201518
-0.21106214351108326666
-0.21263974032917354329
-0.21421606167118134589
-0.21579110850610719319
-0.21736488180237903411
-0.21893738252784877840
-0.22050861164978954876
-0.22207857013490386877
-0.22364725894931666850
-0.22521467905857778247
-0.22678083142766575220
-0.22834571702097944401
-0.22990933680234840186
-0.23147169173502765704
-0.23303278278169492488
-0.23459261090445954201
-0.23615117706485524995
-0.23770848222384163839
-0.23926452734180761461
-0.24081931337856976594
-0.24237284129336947314
-0.24392511204488065424
-0.24547612659119993905
-0.24702588588985691098
-0.24857439089780908326
-0.25012164257143976176
-0.25166764186656431779
-0.25321238973842735698
-0.25475588714169955518
-0.25629813503048520795
-0.25783913435831912198
-0.25937888607816167452
-0.26091739114240747321
-0.26245465050287958286
-0.26399066511083352227
-0.26552543591695654257
-0.26705896387136340842
-0.26859124992360400297
-0.27012229502265949765
-0.27165210011694135295
-0.27318066615429420496
-0.27470799408199597647
-0.27623408484675437968
-0.27775893939471274496
-0.27928255867144807789
-0.28080494362196622982
-0.28232609519071216742
-0.28384601432156003620
-0.28536470195781954429
-0.28688215904223690611
-0.28839838651698823657
-0.28991338532368748915
-0.29142715640338379135
-0.29293970069655755895
-0.29445101914312798996
-0.29596111268245062220
-0.29746998225331200416
-0.29897762879393990909
-0.30048405324199445321
-0.30198925653457314722
-0.30349323960821200652
-0.30499600339888133238
-0.30649754884198876503
-0.30799787687238250333
-0.30949698842434308910
-0.31099488443159190032
-0.31249156582728898623
-0.31398703354402868193
-0.31548128851384854565
-0.31697433166822169825
-0.31846616393806054246
-0.31995678625371770654
-0.32144619954498265813
-0.32293440474108575655
-0.32442140277069930754
-0.32590719456193029124
-0.32739178104233052080
-0.32887516313889070263
-0.33035734177804088052
-0.33183831788565326670
-0.33331809238704174225
-0.33479666620695891499
-0.33627404026960211469
-0.33775021549860578807
-0.33922519281705099115
-0.34069897314745950512
-0.34217155741179305917
-0.34364294653145827096
-0.34511314142730586951
-0.34658214301962558812
-0.34804995222815282574
-0.34951656997206781430
-0.35098199716999001208
-0.35244623473998831775
-0.35390928359957091187
-0.35537114466569186266
-0.35683181885475290240
-0.35829130708259515625
-0.35974961026450769097
-0.36120672931522623816
-0.36266266514892803174
-0.36411741867923891336
-0.36557099081923050132
-0.36702338248141813670
-0.36847459457776604586
-0.36992462801968278852
-0.37137348371802569869
-0.37282116258309849766
-0.37426766552465057236
-0.37571299345188041707
-0.37715714727343430113
-0.37860012789740349337
-0.38004193623133103452
-0.38148257318220651912
-0.38292203965646715025
-0.38436033656000084813
-0.38579746479814236437
-0.38723342527567672366
-0.38866821889683911273
-0.39010184656531127212
-0.39153430918422849061
-0.39296560765617466471
-0.39439574288318146600
-0.39582471576673500246
-0.39725252720777082249
-0.39867917810667224954
-0.40010466936327843124
-0.40152900187687645683
-0.40295217654620540948
-0.40437419426945925283
-0.40579505594427933701
-0.40721476246776183716
-0.40863331473645603253
-0.41005071364636103137
-0.41146696009293104446
-0.41288205497107377528
-0.41429599917514720042
-0.41570879359896562022
-0.41712043913579704979
-0.41853093667836160918
-0.41994028711883535365
-0.42134849134884638788
-0.42275555025948052812
-0.42416146474127675026
-0.42556623568422741188
-0.42696986397778374789
-0.42837235051085031934
-0.42977369617178567962
-0.43117390184840864720
-0.43257296842799053405
-0.43397089679725925349
-0.43536768784240115204
-0.43676334244905945514
-0.43815786150233121399
-0.43955124588677385589
-0.44094349648640052131
-0.44233461418468189574
-0.44372459986454959591
-0.44511345440838850918
-0.44650117869804495374
-0.44788777361482345896
-0.44927324003948593267
-0.45065757885225438129
-0.45204079093281074320
-0.45342287716029378020
-0.45480383841330457306
-0.45618367556990119249
-0.45756238950760369510
-0.45893998110339390140
-0.46031645123370934503
-0.46169180077445248767
-0.46306603060098572300
-0.46443914158813048854
-0.46581113461017253918
-0.46718201054085795043
-0.46855177025339256325
-0.46992041462044736866
-0.47128794451415312317
-0.47265436080610540026
-0.47401966436735987198
-0.47538385606843619469
-0.47674693677931734292
-0.47810890736945049762
-0.47946976870774216106
-0.48082952166256759385
-0.48218816710176348739
-0.48354570589263057290
-0.48490213890193500923
-0.48625746699590599587
-0.48761169104023865950
-0.48896481190009349893
-0.49031683044009433114
-0.49166774752433217710
-0.49301756401636431804
-0.49436628077921129787
-0.49571389867536108653
-0.49706041856676952406
-0.49840584131485515806
-0.49975016778050740385
-0.50109339882407966105
-0.50243553530539408758
-0.50377657808373976778
-0.50511652801787276790
-0.50645538596601713532
-0.50779315278586723004
-0.50912982933458073020
-0.51046541646878818010
-0.51179991504458854923
-0.51313332591754590162
-0.51446564994269761151
-0.51579688797454747995
-0.51712704086706984263
-0.51845610947371090216
-0.51978409464738239976
-0.52111099724046949788
-0.52243681810482833772
-0.52376155809178082112
-0.52508521805212526878
-0.52640779883612920376
-0.52772930129352990658
-0.52904972627353608061
-0.53036907462483184883
-0.53168734719556776103
-0.53300454483337089684
-0.53432066838533776032
-0.53563571869803916492
-0.53694969661751834611
-0.53826260298928996217
-0.53957443865834375796
-0.54088520446914312156
-0.54219490126562208676
-0.54350352989119110614
-0.54481109118873505270
-0.54611758600061044433
-0.54742301516864966260
-0.54872737953416228507
-0.55003067993792709167
-0.55133291722020350001
-0.55263409222072246152
-0.55393420577869190158
-0.55523325873279671949
-0.55653125192119468068
-0.55782818618152252288
-0.55912406235089295858
-0.56041888126589300967
-0.56171264376258966955
-0.56300535067652413002
-0.56429700284271677724
-0.56558760109566452723
-0.56687714626934204709
-0.56816563919720142195
-0.56945308071217481949
-0.57073947164666960497
-0.57202481283257433642
-0.57330910510125543400
-0.57459234928355573668
-0.57587454620980160769
-0.57715569670979705030
-0.57843580161282315277
-0.57971486174764463861
-0.58099287794250331629
-0.58226985102512218706
-0.58354578182270644415
-0.58482067116193858780
-0.58609451986898353226
-0.58736732876948949400
-0.58863909868858099728
-0.58990983045086797798
-0.59117952488044234194
-0.59244818280087419016
-0.59371580503521970140
-0.59498239240601469291
-0.59624794573527839514
-0.59751246584451433996
-0.59877595355470569771
-0.60003840968632227160
-0.60129983505931594578
-0.60256023049312035234
-0.60381959680665564516
-0.60507793481832539140
-0.60633524534601535017
-0.60759152920709968981
-0.60884678721843188409
-0.61010102019635503723
-0.61135422895669599974
-0.61260641431476514640
-0.61385757708536037303
-0.61510771808276509809
-0.61635683812074715249
-0.61760493801256199919
-0.61885201857095162303
-0.62009808060814275432
-0.62134312493585108772
-0.62258715236527728543
-0.62383016370711130705
-0.62507215977152907893
-0.62631314136819393745
-0.62755310930625818333
-0.62879206439436274856
-0.63003000744063264449
-0.63126693925268728691
-0.63250286063763150324
-0.63373777240205797501
-0.63497167535205123468
-0.63620457029318266962
-0.63743645803051407484
-0.63866733936859909626
-0.63989721511147867883
-0.64112608606268361999
-0.64235395302523756733
-0.64358081680165168947
-0.64480667819393122642
-0.64603153800357049352
-0.64725539703155388072
-0.64847825607836095951
-0.64970011594395782328
-0.65092097742780696823
-0.65214084132886029899
-0.65335970844556445769
-0.65457757957585460673
-0.65579445551716319951
-0.65701033706641087662
-0.65822522502001479250
-0.65943912017388628399
-0.66065202332342531921
-0.66186393526352993444
-0.66307485678859134914
-0.66428478869249341088
-0.66549373176861525980
-0.66670168680983199483
-0.66790865460851045476
-0.66911463595651554659
-0.67031963164520536047
-0.67152364246543294612
-0.67272666920755030961
-0.67392871266140097486
-0.67512977361632731110
-0.67632985286116920065
-0.67752895118425737753
-0.67872706937342430766
-0.67992420821599941494
-0.68112036849880530642
-0.68231555100816598802
-0.68350975652990042519
-0.68470298584932520747
-0.68589523975125821220
-0.68708651902001127709
-0.68827682443939608437
-0.68946615679272427180
-0.69065451686280354693
-0.69184190543194290512
-0.69302832328195040912
-0.69421377119413185675
-0.69539824994929411162
-0.69658176032774210551
-0.69776430310928305722
-0.69894587907322403009
-0.70012648899837093275
-0.70130613366303029554
-0.70248481384501271219
-0.70366253032162595638
-0.70483928386968119906
-0.70601507526549034388
-0.70718990528486713742
-0.70836377470312827942
-0.70953668429508920390
-0.71070863483507262792
-0.71187962709690022489
-0.71304966185389606625
-0.71421873987889039626
-0.71538686194421430287
-0.71655402882170116108
-0.71772024128269085175
-0.71888550009802498764
-0.72004980603804935591
-0.72121315987261491731
-0.72237556237107514168
-0.72353701430229033775
-0.72469751643462454460
-0.72585706953594619772
-0.72701567437363034951
-0.72817333171455689289
-0.72933004232510934006
-0.73048580697118092875
-0.73164062641816851595
-0.73279450143097557557
-0.73394743277401175430
-0.73509942121119387082
-0.73625046750594536071
-0.73740057242119705361
-0.73854973671938717317
-0.73969796116246067097
-0.74084524651187133593
-0.74199159352857979588
-0.74313700297305562703
-0.74428147560527657678
-0.74542501218472723146
-0.74656761347040490051
-0.74770928022081095676
-0.74885001319395982922
-0.74998981314737356296
-0.75112868083808481678
-0.75226661702263364351
-0.75340362245707337419
-0.75453969789696428982
-0.75567484409737961659
-0.75680906181290352741
-0.75794235179762714516
-0.75907471480515720241
-0.76020615158860771476
-0.76133666290060830750
-0.76246624949329699916
-0.76359491211832519753
-0.76472265152685514611
-0.76584946846956292177
-0.76697536369663510403
-0.76810033795777221677
-0.76922439200218928335
-0.77034752657861038649
-0.77146974243527677295
-0.77259104031994085826
-0.77371142097986944641
-0.77483088516184295269
-0.77594943361215862332
-0.77706706707662187572
-0.77818378630055995426
-0.77929959202880849656
-0.78041448500572252467
-0.78152846597517111604
-0.78264153568053640431
-0.78375369486471935243
-0.78486494427013497877
-0.78597528463871402238
-0.78708471671190305408
-0.78819324123066858423
-0.78930085893548840303
-0.79040757056636090638
-0.79151337686279943373
-0.79261827856383570978
-0.79372227640801895632
-0.79482537113341544810
-0.79592756347760817981
-0.79702885417770175103
-0.79812924397031370649
-0.79922873359158486117
-0.80032732377717308303
-0.80142501526225318198
-0.80252180878152223897
-0.80361770506919327772
-0.80471270485900114888
-0.80580680888420119778
-0.80690001787756360230
-0.80799233257138525222
-0.80908375369747975725
-0.81017428198718022259
-0.81126391817134224649
-0.81235266298034347621
-0.81344051714407883402
-0.81452748139196884392
-0.81561355645295219308
-0.81669874305549083893
-0.81778304192756945401
-0.81886645379669198430
-0.81994897938988786645
-0.82103061943370736486
-0.82211137465422345905
-0.82319124577703295387
-0.82427023352725514727
-0.82534833862953294048
-0.82642556180803283805
-0.82750190378644350453
-0.82857736528798009434
-0.82965194703538136523
-0.83072564975090834594
-0.83179847415634933228
-0.83287042097301677845
-0.83394149092174607585
-0.83501168472289899469
-0.83608100309636501635
-0.83714944676155578218
-0.83821701643741086674
-0.83928371284239411398
-0.84034953669449663494
-0.84141448871123669662
-0.84247856960965794570
-0.84354178010633074081
-0.84460412091735403983
-0.84566559275835184728
-0.84672619634447665593
-0.84778593239040955787
-0.84884480161035746892
-0.84990280471805745854
-0.85095994242677186481
-0.85201621544929506680
-0.85307162449794782244
-0.85412617028458015511
-0.85517985352057102055
-0.85623267491682986119
-0.85728463518379272035
-0.85833573503142845951
-0.85938597516923420638
-0.86043535630623679822
-0.86148387915099400303
-0.86253154441159551880
-0.86357835279565875464
-0.86462430501033260555
-0.86566940176230000592
-0.86671364375777071309
-0.86775703170249052221
-0.86879956630173260645
-0.86984124826030484456
-0.87088207828254704523
-0.87192205707232894873
-0.87296118533305577802
-0.87399946376766401990
-0.87503689307862286828
-0.87607347396793500138
-0.87710920713713735886
-0.87814409328729736703
-0.87917813311901993334
-0.88021132733244045188
-0.88124367662723113170
-0.88227518170259722208
-0.88330584325727823369
-0.88433566198954871584
-0.88536463859721925562
-0.88639277377763303623
-0.88742006822767149909
-0.88844652264374912587
-0.88947213772181732416
-0.89049691415736387246
-0.89152085264541103271
-0.89254395388051899207
-0.89356621855678353139
-0.89458764736783746852
-0.89560824100685054727
-0.89662800016653021462
-0.89764692553912006634
-0.89866501781640151236
-0.89968227768969533109
-0.90069870584985767259
-0.90171430298728494357
-0.90272906979191036569
-0.90374300695320575194
-0.90475611516018417113
-0.90576839510139395273
-0.90677984746492479307
-0.90779047293840609001
-0.90880027220900538865
-0.90980924596342926947
-0.91081739488792801129
-0.91182471966828704257
-0.91283122098983693338
-0.91383689953744418055
-0.91484175599552020053
-0.91584579104801511207
-0.91684900537841951262
-0.91785139966976736492
-0.91885297460463355446
-0.91985373086513344543
-0.92085366913292521218
-0.92185279008921072741
-0.92285109441473045511
-0.92384858278977177726
-0.92484525589416155533
-0.92584111440727057118
-0.92683615900801441523
-0.92783039037484871248
-0.92882380918577511775
-0.92981641611833965033
-0.93080821184962925230
-0.93179919705627745063
-0.93278937241446224782
-0.93377873859990379035
-0.93476729628787047499
-0.93575504615317128820
-0.93674198887016502102
-0.93772812511275271952
-0.93871345555438268082
-0.93969798086804601223
-0.94068170172628473580
-0.94166461880118190741
-0.94264673276436994342
-0.94362804428702784509
-0.94460855403987908918
-0.94558826269319662394
-0.94656717091679898335
-0.94754527938005250753
-0.94852258875187100973
-0.94949909970071721954
-0.95047481289459956333
-0.95144972900107571689
-0.95242384868725238345
-0.95339717261978340623
-0.95436970146487321021
-0.95534143588827213911
-0.95631237655528311681
-0.95728252413075687333
-0.95825187927909261099
-0.95922044266424089098
-0.96018821494970230113
-0.96115519679852501334
-0.96212138887331155601
-0.96308679183621048736
-0.96405140634892438900
-0.96501523307270686836
-0.96597827266835933901
-0.96694052579623790411
-0.96790199311624980361
-0.96886267528785163794
-0.96982257297005369789
-0.97078168682141907642
-0.97174001750006078204
-0.97269756566364773409
-0.97365433196939699112
-0.97461031707408263269
-0.97556552163403098543
-0.97651994630511951279
-0.97747359174278058980
-0.97842645860200216923
-0.97937854753732289659
-0.98032985920283632897
-0.98128039425219149017
-0.98223015333859164944
-0.98317913711479432148
-0.98412734623311037829
-0.98507478134540926717
-0.98602144310311301556
-0.98696733215719900656
-0.98791244915820186634
-0.98885679475621202084
-0.98980036960087380837
-0.99074317434139058669
-0.99168520962652018103
-0.99262647610457765968
-0.99356697442343611115
-0.99450670523052298044
-0.99544566917282484297
-0.99638386689688651643
-0.99732129904880939542
-0.99825796627425178453
-0.99919386921843134086
-1.00012900852612385272
-1.00106338484166235148
-1.00199699880894010917
-1.00292985107140819601
-1.00386194227207781182
-1.00479327305351673338
-1.00572384405785530959
-1.00665365592678135442
-1.00758270930154480993
-1.00851100482295241711
-1.00943854313137393319
-1.01036532486673724662
-1.01129135066853170777
-1.01221662117580946116
-1.01314113702718056054
-1.01406489886081785379
-1.01498790731445454050
-1.01591016302538661442
-1.01683166663047219735
-1.01775241876612887459
-1.01867242006833813583
-1.01959167117264537517
-1.02051017271415478405
-1.02142792532753601265
-1.02234492964702261553
-1.02326118630640672258
-1.02417669593904858694
-1.02509145917786992364
-1.02600547665535568598
-1.02691874900355628597
-1.02783127685408559593
-1.02874306083812050439
-1.02965410158640446880
-1.03056439972924374082
-1.03147395589651091896
-1.03238277071764361636
-1.03329084482164379466
-1.03419817883707976236
-1.03510477339208462055
-1.03601062911435803926
-1.03691574663116536925
-1.03782012656933986250
-1.03872376955527800924
-1.03962667621494664338
-1.04052884717387539304
-1.04143028305716378590
-1.04233098448947902881
-1.04323095209505400938
-1.04413018649768951640
-1.04502868832075446193
-1.04592645818718676942
-1.04682349671949026515
-1.04771980453974000724
-1.04861538226957784481
-1.04951023053021419429
-1.05040434994242914968
-1.05129774112657203844
-1.05219040470256186559
-1.05308234128988620348
-1.05397355150760385634
-1.05486403597434152957
-1.05575379530829738250
-1.05664283012724036226
-1.05753114104851020372
-1.05841872868901476501
-1.05930559366523602272
-1.06019173659322496484
-1.06107715808860492146
-1.06196185876657134273
-1.06284583924188935633
-1.06372910012889687614
-1.06461164204150571244
-1.06549346559319757510
-1.06637457139702651610
-1.06725496006562270424
-1.06813463221118487567
-1.06901358844548788340
-1.06989182937987781230
-1.07076935562527508772
-1.07164616779217447551
-1.07252226649064374975
-1.07339765233032458092
-1.07427232592043364612
-1.07514628786976085273
-1.07601953878667178088
-1.07689207927910657325
-1.07776390995457971300
-1.07863503142018291037
-1.07950544428257977358
-1.08037514914801291432
-1.08124414662229817452
-1.08211243731083084363
-1.08298002181857677684
-1.08384690075008416343
-1.08471307470947375684
-1.08557854430044375960
-1.08644331012627159971
-1.08730737278980904570
-1.08817073289348642540
-1.08903339103931062759
-1.08989534782886798858
-1.09075660386332140561
-1.09161715974341255730
-1.09247701606946057140
-1.09333617344136424521
-1.09419463245859915901
-1.09505239372022211697
-1.09590945782486692828
-1.09676582537074795987
-1.09762149695565902618
-1.09847647317697183489
-1.09933075463164042773
-1.10018434191619696172
-1.10103723562675526182
-1.10188943635900749030
-1.10274094470822903169
-1.10359176126927360784
-1.10444188663657727467
-1.10529132140415775609
-1.10614006616561222351
-1.10698812151412173677
-1.10783548804244591501
-1.10868216634293026424
-1.10952815700749973793
-1.11037346062766251187
-1.11121807779450820775
-1.11206200909871166793
-1.11290525513052718232
-1.11374781647979426147
-1.11458969373593630436
-1.11543088748795837795
-1.11627139832445099188
-1.11711122683358587970
-1.11795037360312177199
-1.11878883922039973342
-1.11962662427234693752
-1.12046372934547266986
-1.12130015502587365717
-1.12213590189922896023
-1.12297097055080485895
-1.12380536156545374205
-1.12463907552761077646
-1.12547211302129901433
-1.12630447463012650644
-1.12713616093728785650
-1.12796717252556311095
-1.12879750997732131168
-1.12962717387451494488
-1.13045616479868638038
-1.13128448333096254252
-1.13211213005205846294
-1.13293910554227950094
-1.13376541038151290586
-1.13459104514923825313
-1.13541601042452344750
-1.13624030678602117028
-1.13706393481197509665
-1.13788689508021745311
-1.13870918816816790731
-1.13953081465283689866
-1.14035177511082186363
-1.14117207011831189867
-1.14199170025108398541
-1.14281066608450676547
-1.14362896819353587752
-1.14444660715272039653
-1.14526358353619706065
-1.14607989791769449006
-1.14689555087053207671
-1.14771054296761909619
-1.14852487478145715016
-1.14933854688413839007
-1.15015155984734707140
-1.15096391424235733325
-1.15177561064003852742
-1.15258664961084811296
-1.15339703172483876159
-1.15420675755165369480
-1.15501582766053001450
-1.15582424262029759277
-1.15663200299937707349
-1.15743910936578608961
-1.15824556228713193562
-1.15905136233061734075
-1.15985651006303935873
-1.16066100605078847963
-1.16146485085984685348
-1.16226804505579539573
-1.16307058920380512745
-1.16387248386864516903
-1.16467372961467807713
-1.16547432700586117704
-1.16627427660574722879
-1.16707357897748509323
-1.16787223468381795577
-1.16867024428708643491
-1.16946760834922702799
-1.17026432743177055684
-1.17106040209584594258
-1.17185583290217820718
-1.17265062041108847346
-1.17344476518249707375
-1.17423826777591822079
-1.17503112875046622499
-1.17582334866485105351
-1.17661492807738099486
-1.17740586754596265884
-1.17819616762810186472
-1.17898582888089897835
-1.17977485186105668369
-1.18056323712487398758
-1.18135098522824932843
-1.18213809672668168638
-1.18292457217526636448
-1.18371041212870076187
-1.18449561714127926670
-1.18528018776689858527
-1.18606412455905374514
-1.18684742807084187000
-1.18763009885495751661
-1.18841213746369733784
-1.18919354444895875034
-1.18997432036224060070
-1.19075446575464205523
-1.19153398117686282198
-1.19231286717920559326
-1.19309112431157360312
-1.19386875312347262579
-1.19464575416401008745
-1.19542212798189662060
-1.19619787512544295538
-1.19697299614256524869
-1.19774749158077886690
-1.19852136198720660154
-1.19929460790857111974
-1.20006722989119918310
-1.20083922848102120362
-1.20161060422357190980
-1.20238135766398879234
-1.20315148934701410255
-1.20392099981699551847
-1.20468988961788237013
-1.20545815929323030247
-1.20622580938620105329
-1.20699284043955823442
-1.20775925299567377103
-1.20852504759652279454
-1.20929022478368719540
-1.21005478509835473488
-1.21081872908131815691
-1.21158205727297629828
-1.21234477021333675317
-1.21310686844200987800
-1.21386835249821567473
-1.21462922292077935005
-1.21538948024813353577
-1.21614912501831962111
-1.21690815776898464406
-1.21766657903738328983
-1.21842438936037922304
-1.21918158927444308937
-1.21993817931565362578
-1.22069416001969988095
-1.22144953192187677438
-1.22220429555708953728
-1.22295845145985193625
-1.22371200016428627322
-1.22446494220412605003
-1.22521727811271197162
-1.22596900842299616485
-1.22672013366753929198
-1.22747065437851232694
-1.22822057108769744360
-1.22896988432648712752
-1.22971859462588239964
-1.23046670251649792327
-1.23121420852855689709
-1.23196111319189482991
-1.23270741703595865246
-1.23345312058980760561
-1.23419822438211079785
-1.23494272894115009187
-1.23568663479481943845
-1.23642994247062598667
-1.23717265249568741936
-1.23791476539673506174
-1.23865628170011365938
-1.23939720193178004592
-1.24013752661730380922
-1.24087725628187039995
-1.24161639145027602460
-1.24235493264693186433
-1.24309288039586318675
-1.24383023522070823574
-1.24456699764472089598
-1.24530316819076958268
-1.24603874738133568734
-1.24677373573851735244
-1.24750813378402680698
-1.24824194203919103252
-1.24897516102495442780
-1.24970779126187525598
-1.25043983327012653284
-1.25117128756950091173
-1.25190215467940246796
-1.25263243511885602466
-1.25336212940649982528
-1.25409123806058997452
-1.25481976159899999423
-1.25554770053921904704
-1.25627505539835482296
-1.25700182669313176298
-1.25772801493989283550
-1.25845362065459775991
-1.25917864435282433888
-1.25990308654976823632
-1.26062694776024497578
-1.26135022849868771999
-1.26207292927914704883
-1.26279505061529517818
-1.26351659302042107491
-1.26423755700743378760
-1.26495794308886200241
-1.26567775177685426513
-1.26639698358317764892
-1.26711563901922175113
-1.26783371859599269804
-1.26855122282411958423
-1.26926815221385291821
-1.26998450727506084768
-1.27070028851723448859
-1.27141549644948659292
-1.27213013158054932816
-1.27284419441877649781
-1.27355768547214687203
-1.27427060524825574994
-1.27498295425432539574
-1.27569473299719637893
-1.27640594198333401366
-1.27711658171882591617
-1.27782665270938156077
-1.27853615546033339001
-1.27924509047663903516
-1.27995345826287576507
-1.28066125932324736958
-1.28136849416158038473
-1.28207516328132475891
-1.28278126718555540720
-1.28348680637697021290
-1.28419178135789135986
-1.28489619263026710883
-1.28560004069567046514
-1.28630332605529718037
-1.28700604920997041525
-1.28770821066013652079
-1.28840981090586992330
-1.28911085044686934964
-1.28981132978245804921
-1.29051124941158756876
-1.29121060983283397761
-1.29190941154440097627
-1.29260765504411789806
-1.29330534082944237362
-1.29400246939745655617
-1.29469904124487156238
-1.29539505686802525197
-1.29609051676288222765
-1.29678542142503716583
-1.29747977134970859936
-1.29817356703174713317
-1.29886680896562944909
-1.29955949764545986014
-1.30025163356497386324
-1.30094321721753436449
-1.30163424909613145708
-1.30232472969338797242
-1.30301465950155237472
-1.30370403901250475620
-1.30439286871775483867
-1.30508114910844086332
-1.30576888067533336546
-1.30645606390882962344
-1.30714269929896009792
-1.30782878733538576732
-1.30851432850739790581
-1.30919932330391675102
-1.30988377221349683310
-1.31056767572432164570
-1.31125103432420697658
-1.31193384850060090763
-1.31261611874058181648
-1.31329784553086170718
-1.31397902935778310152
-1.31465967070732259181
-1.31533977006508795426
-1.31601932791632103559
-1.31669834474589508844
-1.31737682103831765801
-1.31805475727772880568
-1.31873215394790221922
-1.31940901153224587894
-1.32008533051380050338
-1.32076111137524199179
-1.32143635459887875960
-1.32211106066665484704
-1.32278523006014880892
-1.32345886326057438076
-1.32413196074877759223
-1.32480452300524320641
-1.32547655051008828053
-1.32614804374306638479
-1.32681900318356782442
-1.32748942931061630901
-1.32815932260287494771
-1.32882868353863781152
-1.32949751259584081353
-1.33016581025205304911
-1.33083357698448168094
-1.33150081326996949649
-1.33216751958499801667
-1.33283369640568394310
-1.33349934420778271082
-1.33416446346668804424
-1.33482905465743040274
-1.33549311825467653669
-1.33615665473273548258
-1.33681966456555012535
-1.33748214822670541402
-1.33814410618942258857
-1.33880553892656273263
-1.33946644691062588528
-1.34012683061375015292
-1.34078669050771570603
-1.34144602706393967217
-1.34210484075348013278
-1.34276313204703412474
-1.34342090141494074906
-1.34407814932717650791
-1.34473487625336063367
-1.34539108266275198034
-1.34604676902425079987
-1.34670193580639807607
-1.34735658347737574658
-1.34801071250500648091
-1.34866432335675590082
-1.34931741649973124808
-1.34996999240067983017
-1.35062205152599279501
-1.35127359434170246644
-1.35192462131348412058
-1.35257513290665620787
-1.35322512958617813261
-1.35387461181665536003
-1.35452358006233142262
-1.35517203478709835629
-1.35581997645448937284
-1.35646740552768174659
-1.35711432246949437186
-1.35776072774239442431
-1.35840662180848981144
-1.35905200512953405756
-1.35969687816692541560
-1.36034124138170597895
-1.36098509523456412396
-1.36162844018583184535
-1.36227127669548675470
-1.36291360522315341264
-1.36355542622809999820
-1.36419674016924075133
-1.36483754750513686105
-1.36547784869399579932
-1.36611764419366932266
-1.36675693446165857914
-1.36739571995510900138
-1.36803400113081385925
-1.36867177844521314967
-1.36930905235439381862
-1.36994582331409198162
-1.37058209177968914894
-1.37121785820621577834
-1.37185312304834927666
-1.37248788676041555412
-1.37312214979638946843
-1.37375591260989393660
-1.37438917565419949085
-1.37502193938222738723
-1.37565420424654560883
-1.37628597069937308461
-1.37691723919257769104
-1.37754801017767625204
-1.37817828410583476106
-1.37880806142787082358
-1.37943734259425099253
-1.38006612805509143449
-1.38069441826016103825
-1.38132221365887564168
-1.38194951470030513718
-1.38257632183316814256
-1.38320263550583533174
-1.38382845616632943475
-1.38445378426232212909
-1.38507862024113936883
-1.38570296454975783185
-1.38632681763480558601
-1.38695017994256319938
-1.38757305191896485042
-1.38819543400959477530
-1.38881732665969215290
-1.38943873031414755204
-1.39005964541750515195
-1.39068007241396229823
-1.39130001174736994685
-1.39191946386123177604
-1.39253842919870618466
-1.39315690820260451588
-1.39377490131539305551
-1.39439240897919169981
-1.39500943163577506567
-1.39562596972657271266
-1.39624202369266825485
-1.39685759397480069310
-1.39747268101336330481
-1.39808728524840675256
-1.39870140711963508728
-1.39931504706640841285
-1.39992820552774355214
-1.40054088294231249279
-1.40115307974844394145
-1.40176479638412287976
-1.40237603328699012017
-1.40298679089434408240
-1.40359706964313901700
-1.40420686996998744789
-1.40481619231115839597
-1.40542503710257804528
-1.40603340477983151935
-1.40664129577815977257
-1.40724871053246269881
-1.40785564947729868734
-1.40846211304688395671
-1.40906810167509233267
-1.40967361579545769068
-1.41027865584117151343
-1.41088322224508533331
-1.41148731543970962221
-1.41209093585721245923
-1.41269408392942419361
-1.41329676008783233776
-1.41389896476358645216
-1.41450069838749392659
-1.41510196139002397686
-1.41570275420130542443
-1.41630307725112758455
-1.41690293096894137648
-1.41750231578385732512
-1.41810123212464778142
-1.41869968041974625628
-1.41929766109724719847
-1.41989517458490732693
-1.42049222131014474257
-1.42108880170003892829
-1.42168491618133296939
-1.42228056518043022294
-1.42287574912339898070
-1.42347046843596780619
-1.42406472354352864329
-1.42465851487113703833
-1.42525184284351147390
-1.42584470788503381300
-1.42643711041974863285
-1.42702905087136500129
-1.42762052966325603265
-1.42821154721845799962
-1.42880210395967099934
-1.42939220030926139593
-1.42998183668925826773
-1.43057101352135562777
-1.43115973122691353403
-1.43174799022695564688
-1.43233579094217233774
-1.43292313379291735842
-1.43351001919921117178
-1.43409644758074072968
-1.43468241935685747457
-1.43526793494658000405
-1.43585299476859296064
-1.43643759924124569949
-1.43702174878255695134
-1.43760544381021104776
-1.43818868474155792114
-1.43877147199361621333
-1.43935380598307194333
-1.43993568712627761919
-1.44051711583925357019
-1.44109809253768883508
-1.44167861763693894162
-1.44225869155202901517
-1.44283831469765178035
-1.44341748748816778303
-1.44399621033760783284
-1.44457448365966989456
-1.44515230786772219673
-1.44572968337480234347
-1.44630661059361464993
-1.44688308993653680368
-1.44745912181561386944
-1.44803470664256006550
-1.44860984482876209434
-1.44918453678527492379
-1.44975878292282378546
-1.45033258365180706129
-1.45090593938229073245
-1.45147885052401193207
-1.45205131748638183176
-1.45262334067847875829
-1.45319492050905640923
-1.45376605738653719158
-1.45433675171901599654
-1.45490700391425997751
-1.45547681437970855001
-1.45604618352247228152
-1.45661511174933600010
-1.45718359946675524164
-1.45775164708085958054
-1.45831925499745174157
-1.45888642362200515734
-1.45945315335966974146
-1.46001944461526766972
-1.46058529779329271392
-1.46115071329791579302
-1.46171569153297986610
-1.46228023290200193074
-1.46284433780817413329
-1.46340800665436332473
-1.46397123984310928435
-1.46453403777662782836
-1.46509640085681014376
-1.46565832948522190016
-1.46621982406310458202
-1.46678088499137371237
-1.46734151267062307156
-1.46790170750112025644
-1.46846146988280845669
-1.46902080021530934140
-1.46957969889791972840
-1.47013816632961180630
-1.47069620290903579907
-1.47125380903451929981
-1.47181098510406482838
-1.47236773151535427218
-1.47292404866574599964
-1.47347993695227508226
-1.47403539677165618116
-1.47459042852027977233
-1.47514503259421614345
-1.47569920938921295139
-1.47625295930069633243
-1.47680628272377090227
-1.47735918005321953395
-1.47791165168350469017
-1.47846369800876886735
-1.47901531942283126497
-1.47956651631919289258
-1.48011728909103235097
-1.48066763813120938487
-1.48121756383226399478
-1.48176706658641466063
-1.48231614678556056219
-1.48286480482128246727
-1.48341304108484051127
-1.48396085596717597355
-1.48450824985891149943
-1.48505522315034999004
-1.48560177623147660064
-1.48614790949195607617
-1.48669362332113674796
-1.48723891810804786928
-1.48778379424140183573
-1.48832825210959041051
-1.48887229210069071961
-1.48941591460245970069
-1.48995912000233832195
-1.49050190868745113804
-1.49104428104460295934
-1.49158623746028418111
-1.49212777832066834094
-1.49266890401161056445
-1.49320961491865067394
-1.49374991142701429858
-1.49428979392160665718
-1.49482926278702166201
-1.49536831840753348111
-1.49590696116710408781
-1.49644519144937770960
-1.49698300963768526906
-1.49752041611504038698
-1.49805741126414471154
-1.49859399546738192299
-1.49913016910682439509
-1.49966593256422808800
-1.50020128622103388061
-1.50073623045837245549
-1.50127076565705630529
-1.50180489219758639408
-1.50233861046015038099
-1.50287192082462284226
-1.50340482367056216262
-1.50393731937721764069
-1.50446940832352371586
-1.50500109088810152258
-1.50553236744926177693
-1.50606323838500011369
-1.50659370407300419181
-1.50712376489064370233
-1.50765342121498169270
-1.50818267342276612908
-1.50871152189043700176
-1.50923996699411944178
-1.50976800910962882796
-1.51029564861246901053
-1.51082288587783430955
-1.51134972128060773855
-1.51187615519536033837
-1.51240218799635517399
-1.51292782005754333774
-1.51345305175256616970
-1.51397788345475636795
-1.51450231553713599020
-1.51502634837241645371
-1.51554998233300297628
-1.51607321779098791481
-1.51659605511815698264
-1.51711849468598680701
-1.51764053686564404089
-1.51816218202798913772
-1.51868343054357102240
-1.51920428278263286437
-1.51972473911510941313
-1.52024479991062722029
-1.52076446553850419541
-1.52128373636775338085
-1.52180261276707784468
-1.52232109510487356729
-1.52283918374923188388
-1.52335687906793459945
-1.52387418142845865177
-1.52439109119797322478
-1.52490760874334174702
-1.52542373443112166953
-1.52593946862756379979
-1.52645481169861296777
-1.52696976400991046852
-1.52748432592678784481
-1.52799849781427532491
-1.52851228003709582737
-1.52902567295966762551
-1.52953867694610479155
-1.53005129236021542027
-1.53056351956550407145
-1.53107535892516999354
-1.53158681080211045433
-1.53209787555891518984
-1.53260855355787373178
-1.53311884516096852416
-1.53362875072988091851
-1.53413827062598717710
-1.53464740521036224763
-1.53515615484377576649
-1.53566451988669672168
-1.53617250069928923395
-1.53668009764141588747
-1.53718731107263861801
-1.53769414135221360596
-1.53820058883909704939
-1.53870665389194294370
-1.53921233686910396976
-1.53971763812863060572
-1.54022255802827245930
-1.54072709692547671345
-1.54123125517739012480
-1.54173503314085991178
-1.54223843117243042400
-1.54274144962834669492
-1.54324408886455244350
-1.54374634923669273867
-1.54424823110011000260
-1.54474973480984911767
-1.54525086072065342968
-1.54575160918696918877
-1.54625198056293977622
-1.54675197520241169968
-1.54725159345893148455
-1.54775083568574678416
-1.54824970223580749007
-1.54874819346176284540
-1.54924630971596566376
-1.54974405135046877646
-1.55024141871702769713
-1.55073841216710039959
-1.55123503205184642972
-1.55173127872212868184
-1.55222715252850984591
-1.55272265382125795874
-1.55321778295034418349
-1.55371254026544058924
-1.55420692611592348165
-1.55470094085087340297
-1.55519458481907246750
-1.55568785836900769226
-1.55618076184886988678
-1.55667329560655387510
-1.55716545998965849584
-1.55765725534548682418
-1.55814868202104528372
-1.55863974036304786530
-1.55913043071791102001
-1.55962075343175587960
-1.56011070885041047696
-1.56060029731940685949
-1.56108951918398286551
-1.56157837478908212425
-1.56206686447935449991
-1.56255498859915475940
-1.56304274749254390464
-1.56353014150328939458
-1.56401717097486581132
-1.56450383625045397196
-1.56499013767294070654
-1.56547607558492107849
-1.56596165032869527600
-1.56644686224627283089
-1.56693171167936973198
-1.56741619896941020151
-1.56790032445752380852
-1.56838408848455101996
-1.56886749139103942596
-1.56935053351724329573
-1.56983321520312779640
-1.57031553678836477417
-1.57079749861233541885
-1.57127910101412981980
-1.57176034433254674383
-1.57224122890609452341
-1.57272175507299105668
-1.57320192317116269720
-1.57368173353824736260
-1.57416118651159009367
-1.57464028242824838344
-1.57511902162498884650
-1.57559740443828899537
-1.57607543120433568617
-1.57655310225902689503
-1.57703041793797238412
-1.57750737857649170337
-1.57798398450961574468
-1.57846023607208674200
-1.57893613359836026966
-1.57941167742259858109
-1.57988686787868126693
-1.58036170530019681735
-1.58083619002044639679
-1.58131032237244273375
-1.58178410268891322943
-1.58225753130229507271
-1.58273060854473945902
-1.58320333474811136831
-1.58367571024398756663
-1.58414773536365771633
-1.58461941043812637453
-1.58509073579811055055
-1.58556171177404126027
-1.58603233869606374817
-1.58650261689403593302
-1.58697254669753151646
-1.58744212843583709649
-1.58791136243795549809
-1.58838024903260355281
-1.58884878854821143257
-1.58931698131292575837
-1.58978482765460871207
-1.59025232790083626000
-1.59071948237890170574
-1.59118629141581213737
-1.59165275533829153609
-1.59211887447277877783
-1.59258464914543074187
-1.59305007968211853608
-1.59351516640843104966
-1.59397990964967273264
-1.59444430973086603842
-1.59490836697674942535
-1.59537208171177757876
-1.59583545426012474167
-1.59629848494568093997
-1.59676117409205331477
-1.59722352202256767661
-1.59768552906026828353
-1.59814719552791517643
-1.59860852174798906411
-1.59906950804268710442
-1.59953015473392645696
-1.59999046214334184057
-1.60045043059228708771
-1.60091006040183470027
-1.60136935189277762603
-1.60182830538562681610
-1.60228692120061255721
-1.60274519965768580398
-1.60320314107651662461
-1.60366074577649442290
-1.60411801407673060282
-1.60457494629605479375
-1.60503154275301751497
-1.60548780376589039776
-1.60594372965266618536
-1.60639932073105740074
-1.60685457731849834495
-1.60730949973214332083
-1.60776408828886996361
-1.60821834330527568824
-1.60867226509768102005
-1.60912585398212715226
-1.60957911027437750029
-1.61003203428991836788
-1.61048462634395717075
-1.61093688675142465705
-1.61138881582697446326
-1.61184041388498222602
-1.61229168123954669234
-1.61274261820449060778
-1.61319322509335738580
-1.61364350221941799113
-1.61409344989566339024
-1.61454306843480965838
-1.61499235814929664734
-1.61544131935128798538
-1.61588995235267285366
-1.61633825746506332166
-1.61678623499979523537
-1.61723388526793177000
-1.61768120858025854503
-1.61812820524728806504
-1.61857487557925594501
-1.61902121988612490711
-1.61946723847758189407
-1.61991293166303962359
-1.62035829975163814254
-1.62080334305224127434
-1.62124806187343994957
-1.62169245652355220599
-1.62213652731062096812
-1.62258027454241560150
-1.62302369852643391113
-1.62346679956989969895
-1.62390957797976365207
-1.62435203406270356474
-1.62479416812512433843
-1.62523598047315886994
-1.62567747141266849553
-1.62611864124924143660
-1.62655949028819257762
-1.62700001883456812912
-1.62744022719313963243
-1.62788011566840884470
-1.62831968456460507433
-1.62875893418568784554
-1.62919786483534423382
-1.62963647681698997616
-1.63007477043377213555
-1.63051274598856488218
-1.63095040378397326819
-1.63138774412233167332
-1.63182476730570491519
-1.63226147363588669492
-1.63269786341440159561
-1.63313393694250463817
-1.63356969452118128139
-1.63400513645114697781
-1.63444026303284850599
-1.63487507456646397053
-1.63530957135190191387
-1.63574375368880331472
-1.63617762187653714712
-1.63661117621420970636
-1.63704441700065306264
-1.63747734453443483105
-1.63790995911385484085
-1.63834226103694335919
-1.63877425060146308944
-1.63920592810490939328
-1.63963729384451206705
-1.64006834811723134493
-1.64049909121976233983
-1.64092952344853260094
-1.64135964509970233571
-1.64178945646916485401
-1.64221895785254923261
-1.64264814954521609636
-1.64307703184226094884
-1.64350560503851372829
-1.64393386942853814148
-1.64436182530663099755
-1.64478947296682598278
-1.64521681270289077403
-1.64564384480832637259
-1.64607056957637043482
-1.64649698729999505176
-1.64692309827190785931
-1.64734890278455248236
-1.64777440113010631428
-1.64819959360048406971
-1.64862448048733756245
-1.64904906208205126461
-1.64947333867574852384
-1.64989731055928845471
-1.65032097802326704894
-1.65074434135801584311
-1.65116740085360436119
-1.65159015679983833813
-1.65201260948626149627
-1.65243475920215399100
-1.65285660623653440915
-1.65327815087815821471
-1.65369939341551885903
-1.65412033413684755878
-1.65454097333011374005
-1.65496131128302526037
-1.65538134828302929691
-1.65580108461730879377
-1.65622052057278801307
-1.65663965643612876022
-1.65705849249373260434
-1.65747702903173954603
-1.65789526633603045980
-1.65831320469222309733
-1.65873084438567652832
-1.65914818570149069643
-1.65956522892450242246
-1.65998197433929117750
-1.66039842223017530820
-1.66081457288121403515
-1.66123042657620811902
-1.66164598359869697397
-1.66206124423196199835
-1.66247620875902635262
-1.66289087746265296097
-1.66330525062534584357
-1.66371932852935255909
-1.66413311145666109603
-1.66454659968900009481
-1.66495979350784173434
-1.66537269319439884541
-1.66578529902962846343
-1.66619761129422894186
-1.66660963026863973013
-1.66702135623304581458
-1.66743278946737238932
-1.66784393025128951926
-1.66825477886420925344
-1.66866533558528806758
-1.66907560069342464359
-1.66948557446726186804
-1.66989525718518616593
-1.67030464912532816690
-1.67071375056556292726
-1.67112256178350881974
-1.67153108305652930987
-1.67193931466173162370
-1.67234725687596874621
-1.67275490997583720088
-1.67316227423767949212
-1.67356934993758321717
-1.67397613735137973379
-1.67438263675464837910
-1.67478884842271225075
-1.67519477263064087147
-1.67560040965324907880
-1.67600575976509880149
-1.67641082324049661700
-1.67681560035349663806
-1.67722009137789962452
-1.67762429658725253923
-1.67802821625484854806
-1.67843185065372813014
-1.67883520005667974395
-1.67923826473623849509
-1.67964104496468591421
-1.68004354101405439792
-1.68044575315611899313
-1.68084768166240627885
-1.68124932680419014730
-1.68165068885249202602
-1.68205176807808287620
-1.68245256475147964004
-1.68285307914295101384
-1.68325331152251234101
-1.68365326215992827663
-1.68405293132471300943
-1.68445231928613003980
-1.68485142631319173567
-1.68525025267465955459
-1.68564879863904604207
-1.68604706447461194507
-1.68644505044937043081
-1.68684275683108131361
-1.68724018388725749418
-1.68763733188516096284
-1.68803420109180457587
-1.68843079177395316570
-1.68882710419811998825
-1.68922313863057205197
-1.68961889533732434465
-1.69001437458414649484
-1.69040957663655699861
-1.69080450175982877070
-1.69119915021898292729
-1.69159352227879589137
-1.69198761820379384169
-1.69238143825825582134
-1.69277498270621462595
-1.69316825181145413914
-1.69356124583751110890
-1.69395396504767470347
-1.69434640970498850976
-1.69473858007224742472
-1.69513047641200231830
-1.69552209898655381615
-1.69591344805795918305
-1.69630452388802810404
-1.69669532673832423875
-1.69708585687016544341
-1.69747611454462465908
-1.69786610002252680296
-1.69825581356445298731
-1.69864525543073940916
-1.69903442588147535197
-1.69942332517650762647
-1.69981195357543501956
-1.70020031133761295727
-1.70058839872215350475
-1.70097621598792203557
-1.70136376339354078446
-1.70175104119738818120
-1.70213804965759796239
-1.70252478903205961558
-1.70291125957842037764
-1.70329746155408146002
-1.70368339521620404398
-1.70406906082170284122
-1.70445445862725120101
-1.70483958888927866759
-1.70522445186397320072
-1.70560904780727895513
-1.70599337697489672472
-1.70637743962228727312
-1.70676123600466689290
-1.70714476637701162431
-1.70752803099405414677
-1.70791103011028577718
-1.70829376397995735815
-1.70867623285707614933
-1.70905843699540938019
-1.70944037664848269564
-1.70982205206958126631
-1.71020346351174845623
-1.71058461122778804331
-1.71096549547026155480
-1.71134611649149137591
-1.71172647454355897345
-1.71210656987830711628
-1.71248640274733632261
-1.71286597340200819062
-1.71324528209344495444
-1.71362432907252859593
-1.71400311458990306512
-1.71438163889597161571
-1.71475990224089902547
-1.71513790487460959788
-1.71551564704679226914
-1.71589312900689372476
-1.71627035100412350666
-1.71664731328745356898
-1.71702401610561738998
-1.71740045970710841772
-1.71777664434018384476
-1.71815257025286349801
-1.71852823769292850642
-1.71890364690792263325
-1.71927879814515316426
-1.71965369165168957544
-1.72002832767436331096
-1.72040270645977089181
-1.72077682825427014102
-1.72115069330398418046
-1.72152430185479743407
-1.72189765415236051282
-1.72227075044208532972
-1.72264359096914998482
-1.72301617597849476837
-1.72338850571482637974
-1.72376058042261348646
-1.72413240034609183127
-1.72450396572925912508
-1.72487527681588059814
-1.72524633384948522519
-1.72561713707336616963
-1.72598768673058367007
-1.72635798306396281987
-1.72672802631609378921
-1.72709781672933271324
-1.72746735454580235825
-1.72783664000738967914
-1.72820567335574959422
-1.72857445483230276473
-1.72894298467823692711
-1.72931126313450467258
-1.72967929044182722187
-1.73004706684069131661
-1.73041459257135166183
-1.73078186787383025980
-1.73114889298791507777
-1.73151566815316404480
-1.73188219360889972265
-1.73224846959421485693
-1.73261449634796860231
-1.73298027410878940913
-1.73334580311507324701
-1.73371108360498382694
-1.73407611581645482168
-1.73444089998718742329
-1.73480543635465234154
-1.73516972515608824956
-1.73553376662850467049
-1.73589756100867842470
-1.73626110853315607230
-1.73662440943825457929
-1.73698746396006131754
-1.73735027233443073413
-1.73771283479698945840
-1.73807515158313341530
-1.73843722292802937979
-1.73879904906661364450
-1.73916063023359379613
-1.73952196666344782727
-1.73988305859042391432
-1.74024390624854241594
-1.74060450987159454073
-1.74096486969314145909
-1.74132498594651785595
-1.74168485886482837799
-1.74204448868094985414
-1.74240387562753062944
-1.74276301993699167525
-1.74312192184152636720
-1.74348058157309915295
-1.74383899936344710646
-1.74419717544408192644
-1.74455511004628460725
-1.74491280340111187819
-1.74527025573939176262
-1.74562746729172713067
-1.74598443828849125836
-1.74634116895983426687
-1.74669765953567757144
-1.74705391024571743408
-1.74740992131942318721
-1.74776569298603789981
-1.74812122547458126398
-1.74847651901384337769
-1.74883157383239229432
-1.74918639015856847152
-1.74954096822048832394
-1.74989530824604178072
-1.75024941046289517210
-1.75060327509849011918
-1.75095690238004220163
-1.75131029253454317818
-1.75166344578876009841
-1.75201636236923685708
-1.75236904250229130753
-1.75272148641401903646
-1.75307369433029180961
-1.75342566647675535130
-1.75377740307883533966
-1.75412890436173052322
-1.75448017055042027046
-1.75483120186965702025
-1.75518199854397227710
-1.75553256079767416864
-1.75588288885484922197
-1.75623298293935925507
-1.75658284327484559562
-1.75693247008472686055
-1.75728186359219917811
-1.75763102402023663196
-1.75797995159159192724
-1.75832864652879594658
-1.75867710905415775002
-1.75902533938976524119
-1.75937333775748494524
-1.75972110437896289703
-1.76006863947562264272
-1.76041594326866857045
-1.76076301597908391194
-1.76110985782763029839
-1.76145646903484998091
-1.76180284982106538649
-1.76214900040637778567
-1.76249492101066929095
-1.76284061185360063639
-1.76318607315461450824
-1.76353130513293399062
-1.76387630800756189942
-1.76422108199728278066
-1.76456562732066046806
-1.76490994419604141363
-1.76525403284155202321
-1.76559789347510154300
-1.76594152631437895096
-1.76628493157685650949
-1.76662810947978599074
-1.76697106024020289539
-1.76731378407492445426
-1.76765628120054940631
-1.76799855183345977494
-1.76834059618981820350
-1.76868241448557217410
-1.76902400693645067697
-1.76936537375796465454
-1.76970651516541033210
-1.77004743137386566509
-1.77038812259819211548
-1.77072858905303354149
-1.77106883095281952833
-1.77140884851176116932
-1.77174864194385506266
-1.77208821146288153514
-1.77242755728240397595
-1.77276667961577105714
-1.77310557867611562344
-1.77344425467635469218
-1.77378270782919078563
-1.77412093834711059870
-1.77445894644238566507
-1.77479673232707302333
-1.77513429621301543904
-1.77547163831184007243
-1.77580875883496025480
-1.77614565799357526643
-1.77648233599866833821
-1.77681879306101153659
-1.77715502939116154479
-1.77749104519946077296
-1.77782684069603891253
-1.77816241609081182595
-1.77849777159348154676
-1.77883290741353805586
-1.77916782376025772727
-1.77950252084270377217
-1.77983699886972712711
-1.78017125804996467764
-1.78050529859184303305
-1.78083912070357497370
-1.78117272459316211553
-1.78150611046839202345
-1.78183927853684243026
-1.78217222900587901613
-1.78250496208265385434
-1.78283747797410940805
-1.78316977688697697602
-1.78350185902777558233
-1.78383372460281308669
-1.78416537381818685049
-1.78449680687978351479
-1.78482802399327988851
-1.78515902536413939572
-1.78548981119761851488
-1.78582038169876033962
-1.78615073707240124001
-1.78648087752316397925
-1.78681080325546415288
-1.78714051447350685820
-1.78747001138128691622
-1.78779929418259131424
-1.78812836308099543103
-1.78845721827986792185
-1.78878585998236694365
-1.78911428839144215353
-1.78944250370983470866
-1.78977050614007748841
-1.79009829588449309590
-1.79042587314519807684
-1.79075323812410047708
-1.79108039102289851030
-1.79140733204308455484
-1.79173406138594160097
-1.79206057925254635954
-1.79238688584376815172
-1.79271298136026691061
-1.79303886600249740013
-1.79336453997070743860
-1.79369000346493612241
-1.79401525668501782285
-1.79434029983057863333
-1.79466513310103836787
-1.79498975669561167123
-1.79531417081330624264
-1.79563837565292283571
-1.79596237141305747897
-1.79628615829209969945
-1.79660973648823452109
-1.79693310619943891204
-1.79725626762348689169
-1.79757922095794664408
-1.79790196640018073992
-1.79822450414734613666
-1.79854683439639662090
-1.79886895734407925573
-1.79919087318693926569
-1.79951258212131492975
-1.79983408434334091197
-1.80015538004894803947
-1.80047646943386308038
-1.80079735269360852179
-1.80111803002350434610
-1.80143850161866536652
-1.80175876767400278133
-1.80207882838422617233
-1.80239868394384106232
-1.80271833454714935918
-1.80303778038824980001
-1.80335702166104017152
-1.80367605855921420144
-1.80399489127626244667
-1.80431352000547473580
-1.80463194493993817069
-1.80495016627253734853
-1.80526818419595458387
-1.80558599890267035271
-1.80590361058496529090
-1.80622101943491508713
-1.80653822564439892062
-1.80685522940508902501
-1.80717203090846023628
-1.80748863034578555187
-1.80780502790813679681
-1.80812122378638462372
-1.80843721817120051121
-1.80875301125305432137
-1.80906860322221541004
-1.80938399426875395903
-1.80969918458253942184
-1.81001417435324074567
-1.81032896377032925805
-1.81064355302307333773
-1.81095794230054463192
-1.81127213179161405954
-1.81158612168495491979
-1.81189991216903911742
-1.81221350343214093748
-1.81252689566233571306
-1.81284008904749893709
-1.81315308377531003714
-1.81346588003324837857
-1.81377847800859348659
-1.81409087788843037536
-1.81440307985964310866
-1.81471508410891901875
-1.81502689082274781818
-1.81533850018742093368
-1.81564991238903328252
-1.81596112761348105202
-1.81627214604646480822
-1.81658296787348705337
-1.81689359327985400228
-1.81720402245067380598
-1.81751425557085921625
-1.81782429282512647539
-1.81813413439799487215
-1.81844378047378718577
-1.81875323123663079627
-1.81906248687045657420
-1.81937154755900021286
-1.81968041348580111816
-1.81998908483420263060
-1.82029756178735446781
-1.82060584452820872770
-1.82091393323952366323
-1.82122182810386212815
-1.82152952930359268713
-1.82183703702088828358
-1.82214435143772779391
-1.82245147273589624959
-1.82275840109698150648
-1.82306513670238046210
-1.82337167973329372650
-1.82367803037072984118
-1.82398418879550150429
-1.82429015518823001152
-1.82459592972934059318
-1.82490151259906685510
-1.82520690397744833611
-1.82551210404433073009
-1.82581711297936921667
-1.82612193096202313214
-1.82642655817156152054
-1.82673099478705780463
-1.82703524098739689130
-1.82733929695126828818
-1.82764316285716965638
-1.82794683888340814271
-1.82825032520809704906
-1.82855362200915894100
-1.82885672946432542574
-1.82915964775113426555
-1.82946237704693381865
-1.82976491752888059672
-1.83006726937393948695
-1.83036943275888441818
-1.83067140786030102539
-1.83097319485457910027
-1.83127479391792169494
-1.83157620522634090321
-1.83187742895565697232
-1.83217846528150185570
-1.83247931437931632637
-1.83277997642435042103
-1.83308045159166632665
-1.83338074005613416162
-1.83368084199243708277
-1.83398075757506773265
-1.83428048697832779546
-1.83458003037633288201
-1.83487938794300675660
-1.83517855985208666603
-1.83547754627712000897
-1.83577634739146500209
-1.83607496336829090211
-1.83637339438058178054
-1.83667164060112986235
-1.83696970220254174322
-1.83726757935723439275
-1.83756527223743826305
-1.83786278101519462425
-1.83816010586235933921
-1.83845724695059775655
-1.83875420445139181602
-1.83905097853603316516
-1.83934756937562782220
-1.83964397714109439974
-1.83994020200316454883
-1.84023624413238429121
-1.84053210369911224298
-1.84082778087352161300
-1.84112327582559753836
-1.84141858872514130319
-1.84171371974176634190
-1.84200866904490179188
-1.84230343680379005100
-1.84259802318748766581
-1.84289242836486666377
-1.84318665250461410920
-1.84348069577523032692
-1.84377455834503201082
-1.84406824038214955941
-1.84436174205452974029
-1.84465506352993480199
-1.84494820497594202990
-1.84524116655994374625
-1.84553394844914886441
-1.84582655081058155666
-1.84611897381108258642
-1.84641121761730842010
-1.84670328239573189322
-1.84699516831264176631
-1.84728687553414561151
-1.84757840422616448350
-1.84786975455443736038
-1.84816092668452136571
-1.84845192078178932604
-1.84874273701143154724
-1.84903337553845537045
-1.84932383652768650428
-1.84961412014376791468
-1.84990422655116026895
-1.85019415591414082556
-1.85048390839680609865
-1.85077348416307119194
-1.85106288337666757826
-1.85135210620114754043
-1.85164115279987906426
-1.85193002333605205578
-1.85221871797267123583
-1.85250723687256368954
-1.85279558019837375937
-1.85308374811256548753
-1.85337174077742172784
-1.85365955835504481186
-1.85394720100735721502
-1.85423466889610066843
-1.85452196218283593687
-1.85480908102894570533
-1.85509602559563058222
-1.85538279604391243005
-1.85566939253463325521
-1.85595581522845587408
-1.85624206428586235873
-1.85652813986715781169
-1.85681404213246570301
-1.85709977124173186702
-1.85738532735472272606
-1.85767071063102640061
-1.85795592123005248730
-1.85824095931103050461
-1.85852582503301411165
-1.85881051855487577917
-1.85909504003531234062
-1.85937938963284188354
-1.85966356750580374957
-1.85994757381236142102
-1.86023140871049807998
-1.86051507235802149332
-1.86079856491256090401
-1.86108188653157058390
-1.86136503737232406053
-1.86164801759192188868
-1.86193082734728410088
-1.86221346679515664668
-1.86249593609210695178
-1.86277823539452791479
-1.86306036485863502072
-1.86334232464046745115
-1.86362411489588852831
-1.86390573578058660331
-1.86418718745007239157
-1.86446847005968141531
-1.86474958376457622400
-1.86503052871973928895
-1.86531130507998166301
-1.86559191299993765156
-1.86587235263406681085
-1.86615262413665394803
-1.86643272766180867706
-1.86671266336346564074
-1.86699243139538628711
-1.86727203191115687098
-1.86755146506418867602
-1.86783073100772067932
-1.86810982989481533245
-1.86838876187836366860
-1.86866752711108152774
-1.86894612574551199913
-1.86922455793402342294
-1.86950282382881161070
-1.86978092358189940114
-1.87005885734513643825
-1.87033662527019872712
-1.87061422750858930009
-1.87089166421164021514
-1.87116893553050833710
-1.87144604161618000049
-1.87172298261946901121
-1.87199975869101553627
-1.87227636998128987855
-1.87255281664058803592
-1.87282909881903592009
-1.87310521666658669204
-1.87338117033302298253
-1.87365695996795400546
-1.87393258572082133107
-1.87420804774089022615
-1.87448334617725897999
-1.87475848117885335320
-1.87503345289442857613
-1.87530826147256979297
-1.87558290706168939721
-1.87585738981003191661
-1.87613170986567046050
-1.87640586737650805205
-1.87667986249027674006
-1.87695369535454026355
-1.87722736611669183127
-1.87750087492395478783
-1.87777422192338283580
-1.87804740726186070177
-1.87832043108610391435
-1.87859329354265747192
-1.87886599477789983936
-1.87913853493803828520
-1.87941091416911199019
-1.87968313261699271344
-1.87995519042738057358
-1.88022708774581115421
-1.88049882471764884251
-1.88077040148809104814
-1.88104181820216687093
-1.88131307500473821115
-1.88158417204049754901
-1.88185510945397194149
-1.88212588738951924761
-1.88239650599132968267
-1.88266696540342759469
-1.88293726576966968800
-1.88320740723374524528
-1.88347738993917634964
-1.88374721402931966097
-1.88401687964736352932
-1.88428638693633154766
-1.88455573603907788893
-1.88482492709829552169
-1.88509396025650555195
-1.88536283565606721524
-1.88563155343917276952
-1.88590011374784727316
-1.88616851672395124950
-1.88643676250918046478
-1.88670485124506392971
-1.88697278307296589794
-1.88724055813408564397
-1.88750817656945812928
-1.88777563851995133781
-1.88804294412627005073
-1.88831009352895473619
-1.88857708686837955092
-1.88884392428475700321
-1.88911060591813262377
-1.88937713190838918464
-1.88964350239524558894
-1.88990971751825553859
-1.89017577741681064296
-1.89044168223013819841
-1.89070743209730074419
-1.89097302715720005928
-1.89123846754857138919
-1.89150375340999077345
-1.89176888487986816223
-1.89203386209645052496
-1.89229868519782384872
-1.89256335432191025170
-1.89282786960647086971
-1.89309223118910185946
-1.89335643920723994960
-1.89362049379815644556
-1.89388439509896455704
-1.89414814324661229250
-1.89441173837788756629
-1.89467518062941620016
-1.89493847013766125720
-1.89520160703892792675
-1.89546459146935575291
-1.89572742356492618399
-1.89599010346145835371
-1.89625263129461130163
-1.89651500719988130861
-1.89677723131260700384
-1.89703930376796425783
-1.89730122470096884690
-1.89756299424647689733
-1.89782461253918377508
-1.89808607971362519606
-1.89834739590417722610
-1.89860856124505561482
-1.89886957587031557360
-1.89913043991385466214
-1.89939115350941012395
-1.89965171679055933041
-1.89991212989072133510
-1.90017239294315576359
-1.90043250608096303544
-1.90069246943708569653
-1.90095228314430619854
-1.90121194733524978560
-1.90147146214238249584
-1.90173082769801182756
-1.90199004413428784943
-1.90224911158320209026
-1.90250803017658820515
-1.90276680004612197550
-1.90302542132332175306
-1.90328389413954801590
-1.90354221862600292425
-1.90380039491373342919
-1.90405842313362794194
-1.90431630341641744408
-1.90457403589267615374
-1.90483162069282241369
-1.90508905794711624893
-1.90534634778566291935
-1.90560349033840892297
-1.90586048573514710291
-1.90611733410551154044
-1.90637403557898221784
-1.90663059028488146573
-1.90688699835237596147
-1.90714325991047917164
-1.90739937508804557886
-1.90765534401377534479
-1.90791116681621386597
-1.90816684362375044159
-1.90842237456462004985
-1.90867775976690179363
-1.90893299935852134297
-1.90918809346724693832
-1.90944304222069449750
-1.90969784574632517327
-1.90995250417144446509
-1.91020701762320532779
-1.91046138622860439682
-1.91071561011448620704
-1.91096968940753964006
-1.91122362423430236511
-1.91147741472115506589
-1.91173106099432832394
-1.91198456317989573527
-1.91223792140377990556
-1.91249113579175045174
-1.91274420646942133750
-1.91299713356225753458
-1.91324991719556791736
-1.91350255749450992582
-1.91375505458408756709
-1.91400740858915430209
-1.91425961963440882663
-1.91451168784439884618
-1.91476361334352151999
-1.91501539625601813199
-1.91526703670598164031
-1.91551853481735223639
-1.91576989071391712294
-1.91602110451931384461
-1.91627217635702717935
-1.91652310635039202502
-1.91677389462259051278
-1.91702454129665600391
-1.91727504649546798277
-1.91752541034175827406
-1.91777563295810482558
-1.91802571446693770341
-1.91827565499053620535
-1.91852545465102730660
-1.91877511357039076678
-1.91902463187045291271
-1.91927400967289307765
-1.91952324709923982660
-1.91977234427087095625
-1.92002130130901571547
-1.92027011833475413916
-1.92051879546901682616
-1.92076733283258405116
-1.92101573054608820712
-1.92126398873001225098
-1.92151210750469014776
-1.92176008699030753668
-1.92200792730690062093
-1.92225562857435816611
-1.92250319091241994585
-1.92275061444067740801
-1.92299789927857389671
-1.92324504554540487433
-1.92349205336031880975
-1.92373892284231362559
-1.92398565411024335958
-1.92423224728281150320
-1.92447870247857455439
-1.92472501981594334985
-1.92497119941317995639
-1.92521724138839989138
-1.92546314585957234478
-1.92570891294451862485
-1.92595454276091326840
-1.92620003542628426274
-1.92644539105801571033
-1.92669060977334183349
-1.92693569168935119329
-1.92718063692298779976
-1.92742544559104955759
-1.92767011781018671179
-1.92791465369690517839
-1.92815905336756543420
-1.92840331693838096250
-1.92864744452542113962
-1.92889143624460945858
-1.92913529221172486139
-1.92937901254240062876
-1.92962259735212504630
-1.92986604675624207061
-1.93010936086995088523
-1.93035253980830567855
-1.93059558368621564384
-1.93083849261844830991
-1.93108126671962332388
-1.93132390610421866839
-1.93156641088656666483
-1.93180878118085863626
-1.93205101710113846813
-1.93229311876130926962
-1.93253508627512893270
-1.93277691975621257470
-1.93301861931803276029
-1.93326018507391705903
-1.93350161713705159805
-1.93374291562047928572
-1.93398408063709892346
-1.93422511229966853641
-1.93446601072080293093
-1.93470677601297347259
-1.93494740828851097270
-1.93518790765960146949
-1.93542827423829155720
-1.93566850813648350105
-1.93590860946594012226
-1.93614857833828080125
-1.93638841486498347599
-1.93662811915738464208
-1.93686769132668046289
-1.93710713148392366101
-1.93734643974002707090
-1.93758561620576386098
-1.93782466099176331475
-1.93806357420851504969
-1.93830235596636946127
-1.93854100637553483644
-1.93877952554607957403
-1.93901791358793085251
-1.93925617061087640636
-1.93949429672456385987
-1.93973229203850050517
-1.93997015666205441242
-1.94020789070445287550
-1.94044549427478374426
-1.94068296748199675683
-1.94092031043489909869
-1.94115752324216273017
-1.94139460601231705894
-1.94163155885375360299
-1.94186838187472532447
-1.94210507518334685173
-1.94234163888759159278
-1.94257807309529728634
-1.94281437791416089489
-1.94305055345174304549
-1.94328659981546403301
-1.94352251711260715084
-1.94375830545031802465
-1.94399396493560372434
-1.94422949567533431825
-1.94446489777623954254
-1.94470017134491479638
-1.94493531648781758925
-1.94517033331126643070
-1.94540522192144305080
-1.94563998242439306630
-1.94587461492602420421
-1.94610911953210807823
-1.94634349634827841236
-1.94657774548003370541
-1.94681186703273456651
-1.94704586111160660167
-1.94727972782173730515
-1.94751346726807961218
-1.94774707955544923443
-1.94798056478852776863
-1.94821392307185847770
-1.94844715450985050964
-1.94868025920677712115
-1.94891323726677501149
-1.94914608879384787521
-1.94937881389186218328
-1.94961141266454962562
-1.94984388521550711104
-1.95007623164819587913
-1.95030845206594372065
-1.95054054657194386735
-1.95077251526925299352
-1.95100435826079410262
-1.95123607564935630521
-1.95146766753759570712
-1.95169913402803230085
-1.95193047522305196395
-1.95216169122490779131
-1.95239278213571987308
-1.95262374805747196405
-1.95285458909201703470
-1.95308530534107327448
-1.95331589690622475786
-1.95354636388892410892
-1.95377670639049050294
-1.95400692451210833411
-1.95423701835483143441
-1.95446698801958040903
-1.95469683360714130416
-1.95492655521817071396
-1.95515615295319045153
-1.95538562691258976933
-1.95561497719662935602
-1.95584420390543312074
-1.95607330713899507657
-1.95630228699717867435
-1.95653114357971436021
-1.95675987698620046373
-1.95698848731610408613
-1.95721697466876176641
-1.95744533914337903724
-1.95767358083902798249
-1.95790169985465167812
-1.95812969628906241581
-1.95835757024094037071
-1.95858532180883626594
-1.95881295109116826403
-1.95904045818622640773
-1.95926784319216951147
-1.95949510620702582742
-1.95972224732869304553
-1.95994926665494006990
-1.96017616428340479828
-1.96040294031159567645
-1.96062959483689236428
-1.96085612795654351537
-1.96108253976766855331
-1.96130883036725833790
-1.96153499985217383283
-1.96176104831914810411
-1.96198697586478254529
-1.96221278258555265062
-1.96243846857780379622
-1.96266403393775146213
-1.96288947876148500704
-1.96311480314496322741
-1.96334000718401813224
-1.96356509097435272260
-1.96379005461154121370
-1.96401489819103192147
-1.96423962180814282164
-1.96446422555806599064
-1.96468870953586560724
-1.96491307383647617613
-1.96513731855470630272
-1.96536144378523980336
-1.96558544962262815581
-1.96580933616129960306
-1.96603310349555404635
-1.96625675171956482146
-1.96648028092737758854
-1.96670369121291255254
-1.96692698266996268686
-1.96715015539219528762
-1.96737320947314953123
-1.96759614500624091527
-1.96781896208475681753
-1.96804166080185893861
-1.96826424125058441206
-1.96848670352384313986
-1.96870904771441956882
-1.96893127391497402279
-1.96915338221803937202
-1.96937537271602458588
-1.96959724550121251241
-1.96981900066576121056
-1.97004063830170417226
-1.97026215850094965631
-1.97048356135528179855
-1.97070484695635816941
-1.97092601539571399272
-1.97114706676475925917
-1.97136800115477828221
-1.97158881865693413893
-1.97180951936226311894
-1.97203010336167849914
-1.97225057074597032170
-1.97247092160580272946
-1.97269115603171885098
-1.97291127411413746984
-1.97313127594335191439
-1.97335116160953538689
-1.97357093120273541231
-1.97379058481287739113
-1.97401012252976326700
-1.97422954444307374722
-1.97444885064236497207
-1.97466804121706940300
-1.97488711625649937531
-1.97510607584984443363
-1.97532492008617133195
-1.97554364905442336742
-1.97576226284342371109
-1.97598076154187141107
-1.97619914523834649955
-1.97641741402130399763
-1.97663556797908013252
-1.97685360719988700851
-1.97707153177181726988
-1.97728934178284121437
-1.97750703732080790331
-1.97772461847344560582
-1.97794208532836268688
-1.97815943797304294449
-1.97837667649485338117
-1.97859380098103865286
-1.97881081151872173507
-1.97902770819490791965
-1.97924449109647992984
-1.97946116031020036274
-1.97967771592271235548
-1.97989415802053847493
-1.98011048669008227208
-1.98032670201762583950
-1.98054280408933425228
-1.98075879299124957278
-1.98097466880929706790
-1.98119043162928165636
-1.98140608153688835280
-1.98162161861768426618
-1.98183704295711660137
-1.98205235464051376937
-1.98226755375308583140
-1.98248264037992294462
-1.98269761460599780456
-1.98291247651616431291
-1.98312722619515779954
-1.98334186372759480044
-1.98355638919797483410
-1.98377080269067862517
-1.98398510428996921462
-1.98419929407999107163
-1.98441337214477120376
-1.98462733856821960110
-1.98484119343412834802
-1.98505493682617228934
-1.98526856882790814218
-1.98548208952277605022
-1.98569549899409913962
-1.98590879732508351907
-1.98612198459881805768
-1.98633506089827482910
-1.98654802630631044380
-1.98676088090566294042
-1.98697362477895445032
-1.98718625800869319598
-1.98739878067726705169
-1.98761119286695087105
-1.98782349465990226811
-1.98803568613816361577
-1.98824776738366026940
-1.98845973847820345348
-1.98867159950348781905
-1.98888335054109188782
-1.98909499167248049467
-1.98930652297900145697
-1.98951794454188868322
-1.98972925644226128483
-1.98994045876112113369
-1.99015155157935885732
-1.99036253497774651144
-1.99057340903694379719
-1.99078417383749628478
-1.99099482945983385918
-1.99120537598427227444
-1.99141581349101270959
-1.99162614206014398910
-1.99183636177163969627
-1.99204647270535883941
-1.99225647494104829427
-1.99246636855834013957
-1.99267615363675254514
-1.99288583025569110418
-1.99309539849444949944
-1.99330485843220439612
-1.99351421014802188125
-1.99372345372085457704
-1.99393258922954319523
-1.99414161675281276231
-1.99435053636927839271
-1.99455934815744218014
-1.99476805219569208738
-1.99497664856230505492
-1.99518513733544522459
-1.99539351859316549387
-1.99560179241340507339
-1.99580995887399281763
-1.99601801805264433831
-1.99622597002696466895
-1.99643381487444604439
-1.99664155267247012127
-1.99684918349830664575
-1.99705670742911411963
-1.99726412454194002244
-1.99747143491371970114
-1.99767863862127970087
-1.99788573574133332400
-1.99809272635048440492
-1.99829961052522464549
-1.99850638834193805593
-1.99871305987689429351
-1.99891962520625598998
-1.99912608440607342253
-1.99933243755228784444
-1.99953868472072948670
-1.99974482598711889025
-1.99995086142706801624
-2.00015679111607758145
-2.00036261512953839059
-2.00056833354273333470
-2.00077394643083472658
-2.00097945386890563313
-2.00118485593189987526
-2.00139015269466291613
-2.00159534423192964070
-2.00180043061832746432
-2.00200541192837455640
-2.00221028823648072859
-2.00241505961694565841
-2.00261972614396244197
-2.00282428789161537352
-2.00302874493387905730
-2.00323309734462151610
-2.00343734519760197088
-2.00364148856647306118
-2.00384552752477640425
-2.00404946214594836817
-2.00425329250331740738
-2.00445701867010450670
-2.00466064071942184910
-2.00486415872427548024
-2.00506757275756442027
-2.00527088289207977567
-2.00547408920050518333
-2.00567719175541947507
-2.00588019062929223679
-2.00608308589448780523
-2.00628587762326260346
-2.00648856588776824950
-2.00669115076004933584
-2.00689363231204342952
-2.00709601061558196022
-2.00729828574239110850
-2.00750045776409091758
-2.00770252675219396110
-2.00790449277811022810
-2.00810635591314046167
-2.00830811622848193210
-2.00850977379522666055
-2.00871132868435964269
-2.00891278096676195730
-2.00911413071320898993
-2.00931537799437132108
-2.00951652288081383801
-2.00971756544299795522
-2.00991850575127894984
-2.01011934387590907036
-2.01032007988703353973
-2.01052071385469544040
-2.01072124584883304976
-2.01092167593927850788
-2.01112200419576225841
-2.01132223068791082810
-2.01152235548524327413
-2.01172237865717917771
-2.01192230027303153861
-2.01212212040201166019
-2.01232183911322604075
-2.01252145647567726172
-2.01272097255826709628
-2.01292038742979073618
-2.01311970115894212086
-2.01331891381431304922
-2.01351802546439140329
-2.01371703617756070415
-2.01391594602210588505
-2.01411475506620396558
-2.01431346337793382162
-2.01451207102526907988
-2.01471057807608389112
-2.01490898459814760102
-2.01510729065912919111
-2.01530549632659372605
-2.01550360166800768269
-2.01570160675073184464
-2.01589951164202840772
-2.01609731640905609495
-2.01629502111887193294
-2.01649262583843480456
-2.01669013063459789947
-2.01688753557411626360
-2.01708484072364324646
-2.01728204614972916886
-2.01747915191882798425
-2.01767615809728795284
-2.01787306475135963524
-2.01806987194719189560
-2.01826657975083367802
-2.01846318822823267425
-2.01865969744523887641
-2.01885610746759880385
-2.01905241836096038810
-2.01924863019087208471
-2.01944474302278198508
-2.01964075692203781642
-2.01983667195388916227
-2.02003248818348435378
-2.02022820567587357843
-2.02042382449600754768
-2.02061934470873616476
-2.02081476637881340963
-2.02101008957088934537
-2.02120531434952033223
-2.02140044077916103404
-2.02159546892416708275
-2.02179039884879729883
-2.02198523061720969451
-2.02217996429346635878
-2.02237459994152724008
-2.02256913762526036038
-2.02276357740842893662
-2.02295791935470159473
-2.02315216352764837282
-2.02334630999074160940
-2.02354035880735549924
-2.02373431004076786976
-2.02392816375415707242
-2.02412192001060597946
-2.02431557887309798716
-2.02450914040452056852
-2.02470260466766438512
-2.02489597172522239887
-2.02508924163978987210
-2.02528241447386836427
-2.02547549028985818254
-2.02566846915006637531
-2.02586135111670273545
-2.02605413625187935622
-2.02624682461761329577
-2.02643941627582568898
-2.02663191128833908294
-2.02682430971688321009
-2.02701661162309010322
-2.02720881706849498372
-2.02740092611454070237
-2.02759293882257018993
-2.02778485525383489474
-2.02797667546948767736
-2.02816839953058680734
-2.02836002749809729551
-2.02855155943288645304
-2.02874299539572833240
-2.02893433544729973050
-2.02912557964818640599
-2.02931672805887552968
-2.02950778073976101368
-2.02969873775114306724
-2.02988959915322642047
-2.03008036500612298880
-2.03027103536984787624
-2.03046161030432426031
-2.03065208986937939528
-2.03084247412474860894
-2.03103276313007130582
-2.03122295694489540807
-2.03141305562867335865
-2.03160305924076389772
-2.03179296784043428303
-2.03198278148685629318
-2.03217250023910978030
-2.03236212415618044957
-2.03255165329696252385
-2.03274108772025474678
-2.03293042748476437964
-2.03311967264910675723
-2.03330882327180351155
-2.03349787941128301583
-2.03368684112588393731
-2.03387570847384813177
-2.03406448151332908125
-2.03425316030238745313
-2.03444174489898887970
-2.03463023536101017541
-2.03481863174623622825
-2.03500693411235777930
-2.03519514251697586360
-2.03538325701759870157
-2.03557127767164436349
-2.03575920453643766095
-2.03594703766921369947
-2.03613477712711610224
-2.03632242296719701002
-2.03650997524641708125
-2.03669743402164771240
-2.03688479934966748530
-2.03707207128716483169
-2.03725924989073847726
-2.03744633521689566535
-2.03763332732205482145
-2.03782022626254066822
-2.03800703209459088683
-2.03819374487435167609
-2.03838036465787952878
-2.03856689150114078757
-2.03875332546001253320
-2.03893966659028080812
-2.03912591494764328104
-2.03931207058770702645
-2.03949813356599074510
-2.03968410393792254354
-2.03986998175884304274
-2.04005576708400138131
-2.04024145996855876817
-2.04042706046758892668
-2.04061256863607365375
-2.04079798452890814886
-2.04098330820089834958
-2.04116853970676137564
-2.04135367910112686118
-2.04153872643853340207
-2.04172368177343477313
-2.04190854516019326681
-2.04209331665308679860
-2.04227799630630135752
-2.04246258417393722340
-2.04264708031000630228
-2.04283148476843301466
-2.04301579760305473954
-2.04320001886761870580
-2.04338414861578776538
-2.04356818690113595238
-2.04375213377715114760
-2.04393598929723285806
-2.04411975351469266116
-2.04430342648275775730
-2.04448700825456652908
-2.04467049888317164985
-2.04485389842153786333
-2.04503720692254553626
-2.04522042443898488528
-2.04540355102356485872
-2.04558658672890292252
-2.04576953160753438610
-2.04595238571190440879
-2.04613514909437732570
-2.04631782180722687770
-2.04650040390264376100
-2.04668289543273074216
-2.04686529644950709894
-2.04704760700490551173
-2.04722982715077339577
-2.04741195693887378937
-2.04759399642088180116
-2.04777594564838949509
-2.04795780467290500226
-2.04813957354584852411
-2.04832125231855677328
-2.04850284104228252957
-2.04868433976819286357
-2.04886574854737002482
-2.04904706743081321818
-2.04922829646943505111
-2.04940943571406641865
-2.04959048521545161847
-2.04977144502425234762
-2.04995231519104592621
-2.05013309576632485332
-2.05031378680050035967
-2.05049438834389574637
-2.05067490044675526661
-2.05085532315923613211
-2.05103565653141384217
-2.05121590061327951915
-2.05139605545474212889
-2.05157612110562848073
-2.05175609761567834255
-2.05193598503455199022
-2.05211578341182621088
-2.05229549279699341469
-2.05247511323946518758
-2.05265464478856962671
-2.05283408749355311684
-2.05301344140357810986
-2.05319270656772490113
-2.05337188303499340591
-2.05355097085429960657
-2.05372997007447910534
-2.05390888074428268339
-2.05408770291238385042
-2.05426643662736774232
-2.05444508193774577620
-2.05462363889194055133
-2.05480210753829828363
-2.05498048792507992388
-2.05515878010046826319
-2.05533698411256349203
-2.05551510000938497669
-2.05569312783887081508
-2.05587106764887739274
-2.05604891948718337957
-2.05622668340148218036
-2.05640435943938948427
-2.05658194764844104441
-2.05675944807608912512
-2.05693686076970783105
-2.05711418577659133078
-2.05729142314395163638
-2.05746857291892348840
-2.05764563514855858273
-2.05782260987983089962
-2.05799949715963270691
-2.05817629703477900094
-2.05835300955200350970
-2.05852963475796046922
-2.05870617269922506765
-2.05888262342229300117
-2.05905898697358002991
-2.05923526339942464247
-2.05941145274608450322
-2.05958755505973822864
-2.05976357038648671960
-2.05993949877235182910
-2.06011534026327591818
-2.06029109490512318814
-2.06046676274367968063
-2.06064234382465194528
-2.06081783819366926025
-2.06099324589628318805
-2.06116856697796491105
-2.06134380148410878419
-2.06151894946003189091
-2.06169401095097315491
-2.06186898600209289611
-2.06204387465847371885
-2.06221867696512228818
-2.06239339296696577719
-2.06256802270885453154
-2.06274256623556251355
-2.06291702359178508175
-2.06309139482214165540
-2.06326567997117304998
-2.06343987908334458581
-2.06361399220304475577
-2.06378801937458389304
-2.06396196064219683564
-2.06413581605004070596
-2.06430958564219846352
-2.06448326946267313176
-2.06465686755539445940
-2.06483037996421403548
-2.06500380673290928613
-2.06517714790517947776
-2.06535040352464793756
-2.06552357363486516206
-2.06569665827930082358
-2.06586965750135398423
-2.06604257134434510235
-2.06621539985151958518
-2.06638814306604867710
-2.06656080103102590684
-2.06673337378947197251
-2.06690586138433163299
-2.06707826385847326378
-2.06725058125469196568
-2.06742281361570778841
-2.06759496098416484244
-2.06776702340263396351
-2.06793900091361004812
-2.06811089355951471802
-2.06828270138269321166
-2.06845442442541882500
-2.06862606272989024703
-2.06879761633823067157
-2.06896908529248868547
-2.06914046963464137718
-2.06931176940659122820
-2.06948298465016433667
-2.06965411540711663463
-2.06982516171912811487
-2.06999612362780682773
-2.07016700117468532838
-2.07033779440122511772
-2.07050850334881220149
-2.07067912805876241933
-2.07084966857231478343
-2.07102012493063769583
-2.07119049717482672790
-2.07136078534590417632
-2.07153098948481861896
-2.07170110963244713531
-2.07187114582959530651
-2.07204109811699321853
-2.07221096653529990306
-2.07238075112510422571
-2.07255045192692044509
-2.07272006898119220963
-2.07288960232828811669
-2.07305905200850926207
-2.07322841806208213455
-2.07339770052916083642
-2.07356689944983196838
-2.07373601486410441552
-2.07390504681192133773
-2.07407399533314906748
-2.07424286046758910018
-2.07441164225496521567
-2.07458034073493413629
-2.07474895594708108604
-2.07491748793091801417
-2.07508593672588892431
-2.07525430237136632172
-2.07542258490664943693
-2.07559078437096955483
-2.07575890080348868239
-2.07592693424329421958
-2.07609488472940606485
-2.07626275230077528278
-2.07643053699627877506
-2.07659823885472594185
-2.07676585791485646126
-2.07693339421533762490
-2.07710084779477099914
-2.07726821869168487567
-2.07743550694453960048
-2.07760271259172490943
-2.07776983567156259269
-2.07793687622230338619
-2.07810383428212919199
-2.07827070988915396654
-2.07843750308142150018
-2.07860421389690763760
-2.07877084237351583695
-2.07893738854908605163
-2.07910385246138496029
-2.07927023414811351643
-2.07943653364690161922
-2.07960275099531344267
-2.07976888623084255059
-2.07993493939091411704
-2.08010091051288625863
-2.08026679963404959040
-2.08043260679162456128
-2.08059833202276589503
-2.08076397536455770521
-2.08092953685401882424
-2.08109501652810013894
-2.08126041442368237000
-2.08142573057758140109
-2.08159096502654605843
-2.08175611780725455802
-2.08192118895632116704
-2.08208617851029131884
-2.08225108650564338930
-2.08241591297878869682
-2.08258065796607327869
-2.08274532150377345019
-2.08290990362810068959
-2.08307440437520119403
-2.08323882378115010638
-2.08340316188196084113
-2.08356741871357620255
-2.08373159431187771062
-2.08389568871267538697
-2.08405970195171663661
-2.08422363406468047486
-2.08438748508718330044
-2.08455125505477090186
-2.08471494400292733928
-2.08487855196706828309
-2.08504207898254678710
-2.08520552508464662722
-2.08536889030858763050
-2.08553217468952567515
-2.08569537826255002599
-2.08585850106268422266
-2.08602154312488785592
-2.08618450448405567954
-2.08634738517501538979
-2.08651018523253251047
-2.08667290469130639607
-2.08683554358597112000
-2.08699810195109680677
-2.08716057982119007619
-2.08732297723069137874
-2.08748529421397766015
-2.08764753080536102914
-2.08780968703909142192
-2.08797176294935127316
-2.08813375857026217730
-2.08829567393588044766
-2.08845750908019800463
-2.08861926403714370792
-2.08878093884058291252
-2.08894253352431746862
-2.08910404812208527758
-2.08926548266755984784
-2.08942683719435340350
-2.08958811173601466393
-2.08974930632602751146
-2.08991042099781276775
-2.09007145578473085834
-2.09023241072007692765
-2.09039328583708394760
-2.09055408116892316173
-2.09071479674870008836
-2.09087543260946340240
-2.09103598878419072449
-2.09119646530580638455
-2.09135686220716676686
-2.09151717952106741549
-2.09167741728024170200
-2.09183757551736126956
-2.09199765426503558885
-2.09215765355581195806
-2.09231757342217683515
-2.09247741389655184108
-2.09263717501130219745
-2.09279685679872784476
-2.09295645929106655103
-2.09311598252049835267
-2.09327542651913844907
-2.09343479131904297574
-2.09359407695220500756
-2.09375328345055944368
-2.09391241084597634625
-2.09407145917026893400
-2.09423042845518647681
-2.09438931873241873660
-2.09454813003359507917
-2.09470686239028447417
-2.09486551583399416288
-2.09502409039617276676
-2.09518258610820629073
-2.09534100300142300810
-2.09549934110708946378
-2.09565760045641313880
-2.09581578108054022991
-2.09597388301055786997
-2.09613190627749323980
-2.09628985091231445637
-2.09644771694592924050
-2.09660550440918491688
-2.09676321333287107862
-2.09692084374771781086
-2.09707839568439480260
-2.09723586917351179082
-2.09739326424562166906
-2.09755058093121693474
-2.09770781926073102142
-2.09786497926453829876
-2.09802206097295629306
-2.09817906441624035807
-2.09833598962458989234
-2.09849283662814567464
-2.09864960545698764349
-2.09880629614114022630
-2.09896290871056745431
-2.09911944319517607127
-2.09927589962481464525
-2.09943227802927312453
-2.09958857843828372580
-2.09974480088152137824
-2.09990094538860239126
-2.10005701198908534266
-2.10021300071247196684
-2.10036891158820449022
-2.10052474464567096035
-2.10068049991419769640
-2.10083617742305728271
-2.10099177720146457204
-2.10114729927857535330
-2.10130274368348901604
-2.10145811044524855049
-2.10161339959284054757
-2.10176861115519297840
-2.10192374516117874705
-2.10207880163961302600
-2.10223378061925458837
-2.10238868212880580799
-2.10254350619691265933
-2.10269825285216471755
-2.10285292212309604665
-2.10300751403818164675
-2.10316202862584500366
-2.10331646591444920702
-2.10347082593230449987
-2.10362510870766206139
-2.10377931426872111231
-2.10393344264362225360
-2.10408749386045146323
-2.10424146794723965215
-2.10439536493196177602
-2.10454918484253639122
-2.10470292770682876338
-2.10485659355264642656
-2.10501018240774451229
-2.10516369429982175276
-2.10531712925652136903
-2.10547048730543240325
-2.10562376847408838643
-2.10577697278997044705
-2.10593010028050064975
-2.10608315097305132113
-2.10623612489493616806
-2.10638902207341738304
-2.10654184253570120333
-2.10669458630894013140
-2.10684725342023293493
-2.10699984389662331452
-2.10715235776510256827
-2.10730479505260470674
-2.10745715578601400253
-2.10760943999215832889
-2.10776164769781315655
-2.10791377892969888919
-2.10806583371448352793
-2.10821781207878089504
-2.10836971404915329842
-2.10852153965210709075
-2.10867328891409666625
-2.10882496186152268436
-2.10897655852073473426
-2.10912807891802689397
-2.10927952307964172718
-2.10943089103176761867
-2.10958218280054277116
-2.10973339841204987621
-2.10988453789232099922
-2.11003560126733535895
-2.11018658856301755122
-2.11033749980524376610
-2.11048833501983468253
-2.11063909423255946507
-2.11078977746913754032
-2.11094038475523193554
-2.11109091611645771636
-2.11124137157837576950
-2.11139175116649635555
-2.11154205490627733255
-2.11169228282312415601
-2.11184243494239387573
-2.11199251128938803035
-2.11214251188935930870
-2.11229243676750844116
-2.11244228594898419971
-2.11259205945888561828
-2.11274175732225888424
-2.11289137956410044694
-2.11304092620935657365
-2.11319039728291979685
-2.11333979280963557557
-2.11348911281429518993
-2.11363835732164062620
-2.11378752635636590895
-2.11393661994310955166
-2.11408563810646432657
-2.11423458087096882707
-2.11438344826111501717
-2.11453224030134201428
-2.11468095701604053005
-2.11482959842955020591
-2.11497816456616094527
-2.11512665545011335766
-2.11527507110559831460
-2.11542341155675606146
-2.11557167682767843786
-2.11571986694240621318
-2.11586798192493219517
-2.11601602179919900948
-2.11616398658910043196
-2.11631187631848094455
-2.11645969101113484712
-2.11660743069081025425
-2.11675509538120198982
-2.11690268510595869245
-2.11705019988868148317
-2.11719763975291952462
-2.11734500472217446188
-2.11749229481990086654
-2.11763951006950223999
-2.11778665049433589829
-2.11793371611771030771
-2.11808070696288330836
-2.11822762305306788733
-2.11837446441142729370
-2.11852123106107592676
-2.11866792302508200052
-2.11881454032646443508
-2.11896108298819507709
-2.11910755103319692338
-2.11925394448434678552
-2.11940026336447351341
-2.11954650769635755125
-2.11969267750273315798
-2.11983877280628441042
-2.11998479362965230877
-2.12013073999542678294
-2.12027661192615468622
-2.12042240944433180161
-2.12056813257240772685
-2.12071378133278765077
-2.12085935574782702417
-2.12100485583983777715
-2.12115028163108032544
-2.12129563314377289629
-2.12144091040008486715
-2.12158611342214120654
-2.12173124223201714500
-2.12187629685174483640
-2.12202127730330891708
-2.12216618360864739401
-2.12231101578965386523
-2.12245577386817307897
-2.12260045786600670681
-2.12274506780490890279
-2.12288960370658941201
-2.12303406559271090615
-2.12317845348488987156
-2.12332276740469927390
-2.12346700737366633760
-2.12361117341327076957
-2.12375526554494964415
-2.12389928379009251813
-2.12404322817004542756
-2.12418709870610777912
-2.12433089541953545876
-2.12447461833153905530
-2.12461826746328386051
-2.12476184283588986901
-2.12490534447043355470
-2.12504877238794609440
-2.12519212660941336779
-2.12533540715577906610
-2.12547861404794025120
-2.12562174730675046419
-2.12576480695301794910
-2.12590779300750876146
-2.12605070549094365973
-2.12619354442399854932
-2.12633630982730670311
-2.12647900172145787323
-2.12662162012699473834
-2.12676416506442134136
-2.12690663655419331945
-2.12704903461672589771
-2.12719135927238900408
-2.12733361054150993397
-2.12747578844437201795
-2.12761789300121639812
-2.12775992423223980765
-2.12790188215759590307
-2.12804376679739526423
-2.12818557817170628255
-2.12832731630055471683
-2.12846898120392102882
-2.12861057290174526813
-2.12875209141392440770
-2.12889353676031145568
-2.12903490896071856397
-2.12917620803491436376
-2.12931743400262574184
-2.12945858688353562016
-2.12959966669728739674
-2.12974067346347917251
-2.12988160720166996853
-2.13002246793137439695
-2.13016325567206576963
-2.13030397044317654220
-2.13044461226409520549
-2.13058518115417117045
-2.13072567713270943912
-2.13086610021897637779
-2.13100645043219394381
-2.13114672779154323834
-2.13128693231616628267
-2.13142706402516157738
-2.13156712293758587862
-2.13170710907245686272
-2.13184702244874868526
-2.13198686308539775425
-2.13212663100129651284
-2.13226632621529743616
-2.13240594874621258725
-2.13254549861281361700
-2.13268497583382954375
-2.13282438042795208233
-2.13296371241382809458
-2.13310297181006935929
-2.13324215863524235814
-2.13338127290787671342
-2.13352031464645852665
-2.13365928386943703998
-2.13379818059522019524
-2.13393700484217463398
-2.13407575662862969423
-2.13421443597287208149
-2.13435304289315030957
-2.13449157740767336833
-2.13463003953460850326
-2.13476842929208698862
-2.13490674669819657794
-2.13504499177098905349
-2.13518316452847489728
-2.13532126498862551145
-2.13545929316937321829
-2.13559724908861170434
-2.13573513276419557627
-2.13587294421393902866
-2.13601068345561850848
-2.13614835050697271512
-2.13628594538569860362
-2.13642346810945715774
-2.13656091869586850507
-2.13669829716251680196
-2.13683560352694534856
-2.13697283780666102970
-2.13711000001912987400
-2.13724709018178149478
-2.13738410831200731366
-2.13752105442715967243
-2.13765792854455360938
-2.13779473068146552706
-2.13793146085513496857
-2.13806811908276150902
-2.13820470538151008455
-2.13834121976850388691
-2.13847766226083280117
-2.13861403287554585617
-2.13875033162965655364
-2.13888655854013931545
-2.13902271362393348042
-2.13915879689793797525
-2.13929480837901708767
-2.13943074808399735787
-2.13956661602966802249
-2.13970241223277968245
-2.13983813671005007606
-2.13997378947815608541
-2.14010937055373862137
-2.14024487995340439994
-2.14038031769372061319
-2.14051568379121848196
-2.14065097826239547629
-2.14078620112370687778
-2.14092135239157688176
-2.14105643208239149189
-2.14119144021249985244
-2.14132637679821602461
-2.14146124185581676613
-2.14159603540154508394
-2.14173075745160579331
-2.14186540802216773827
-2.14199998712936556799
-2.14213449478929707226
-2.14226893101802540187
-2.14240329583157640414
-2.14253758924594217561
-2.14267181127707750932
-2.14280596194090389162
-2.14294004125330639354
-2.14307404923013367082
-2.14320798588720151656
-2.14334185124028842040
-2.14347564530514089753
-2.14360936809746682741
-2.14374301963294078277
-2.14387659992720358559
-2.14401010899585964253
-2.14414354685447827720
-2.14427691351859639468
-2.14441020900371537294
-2.14454343332530106281
-2.14467658649878645249
-2.14480966853956811491
-2.14494267946301109262
-2.14507561928444356880
-2.14520848801916130810
-2.14534128568242543622
-2.14547401228946243990
-2.14560666785546549917
-2.14573925239559581968
-2.14587176592497641536
-2.14600420845870010211
-2.14613658001182594504
-2.14626888059937659392
-2.14640111023634405640
-2.14653326893768570116
-2.14666535671832470200
-2.14679737359315403467
-2.14692931957702937140
-2.14706119468477485412
-2.14719299893118398259
-2.14732473233101250898
-2.14745639489898554331
-2.14758798664979755344
-2.14771950759810703602
-2.14785095775853873690
-2.14798233714568942432
-2.14811364577411900711
-2.14824488365835586379
-2.14837605081289773068
-2.14850714725220637291
-2.14863817299071424571
-2.14876912804282049763
-2.14890001242289230277
-2.14903082614526352856
-2.14916156922423740028
-2.14929224167408428059
-2.14942284350904255774
-2.14955337474331908965
-2.14968383539108875979
-2.14981422546649492133
-2.14994454498364895301
-2.15007479395663025912
-2.15020497239948760182
-2.15033508032623688067
-2.15046511775086468532
-2.15059508468732341058
-2.15072498114953658543
-2.15085480715139576446
-2.15098456270676097191
-2.15111424782946158984
-2.15124386253329502594
-2.15137340683202982206
-2.15150288073940165745
-2.15163228426911556923
-2.15176161743484728461
-2.15189088025023966821
-2.15202007272890716294
-2.15214919488443179318
-2.15227824673036716163
-2.15240722828023356428
-2.15253613954752420767
-2.15266498054569899168
-2.15279375128818983853
-2.15292245178839758424
-2.15305108205969375490
-2.15317964211541656994
-2.15330813196888071204
-2.15343655163336489267
-2.15356490112211984567
-2.15369318044836877135
-2.15382138962530067516
-2.15394952866608058173
-2.15407759758383932081
-2.15420559639168107680
-2.15433352510267717150
-2.15446138372987405774
-2.15458917228628532570
-2.15471689078489792024
-2.15484453923866814407
-2.15497211766052298998
-2.15509962606335925273
-2.15522706446004930214
-2.15535443286343220137
-2.15548173128631992412
-2.15560895974149557830
-2.15573611824171251783
-2.15586320679969656311
-2.15599022542814555692
-2.15611717413972714397
-2.15624405294708276770
-2.15637086186282189715
-2.15649760089952957642
-2.15662427006976020749
-2.15675086938604154696
-2.15687739886087115337
-2.15700385850672038401
-2.15713024833603261854
-2.15725656836122148263
-2.15738281859467484480
-2.15750899904875170776
-2.15763510973578398477
-2.15776115066807472331
-2.15788712185789943732
-2.15801302331750965990
-2.15813885505912361751
-2.15826461709493688801
-2.15839030943711485122
-2.15851593209779757387
-2.15864148508909625690
-2.15876696842309634405
-2.15889238211185574556
-2.15901772616740439403
-2.15914300060174690898
-2.15926820542685948823
-2.15939334065469257240
-2.15951840629716995679
-2.15964340236618657087
-2.15976832887361425151
-2.15989318583129685791
-2.16001797325104982761
-2.16014269114466328503
-2.16026733952390204152
-2.16039191840050470717
-2.16051642778618235852
-2.16064086769261987087
-2.16076523813147680642
-2.16088953911438608202
-2.16101377065295574553
-2.16113793275876586719
-2.16126202544337342459
-2.16138604871830608545
-2.16151000259506975709
-2.16163388708514148107
-2.16175770219997387400
-2.16188144795099379536
-2.16200512434960367969
-2.16212873140717931619
-2.16225226913507073689
-2.16237573754460532527
-2.16249913664708071082
-2.16262246645377453902
-2.16274572697593558956
-2.16286891822478910541
-2.16299204021153412825
-2.16311509294734705122
-2.16323807644337806622
-2.16336099071075205202
-2.16348383576056901845
-2.16360661160390632674
-2.16372931825181513688
-2.16385195571532173986
-2.16397452400542977813
-2.16409702313311669286
-2.16421945310933550033
-2.16434181394501612417
-2.16446410565106361901
-2.16458632823835994685
-2.16470848171776042435
-2.16483056610009905185
-2.16495258139618451665
-2.16507452761680152520
-2.16519640477271213541
-2.16531821287465264803
-2.16543995193333715932
-2.16556162195945578475
-2.16568322296367465896
-2.16580475495663682395
-2.16592621794896222909
-2.16604761195124595474
-2.16616893697406043273
-2.16629019302795500224
-2.16641138012345768615
-2.16653249827106941794
-2.16665354748127025886
-2.16677452776451762162
-2.16689543913124449404
-2.16701628159186299172
-2.16713705515676080537
-2.16725775983630164490
-2.16737839564083056842
-2.16749896258066510057
-2.16761946066610411421
-2.16773988990742116911
-2.16786025031486984105
-2.16798054189867794861
-2.16810076466905510273
-2.16822091863618426899
-2.16834100381023064941
-2.16846102020133235655
-2.16858096781960973942
-2.16870084667515961030
-2.16882065677805480064
-2.16894039813834904606
-2.16906007076607298956
-2.16917967467123551373
-2.16929920986382285264
-2.16941867635380214452
-2.16953807415111477042
-2.16965740326568656826
-2.16977666370741495427
-2.16989585548618046928
-2.17001497861184144966
-2.17013403309423402732
-2.17025301894317301787
-2.17037193616845369704
-2.17049078477984780378
-2.17060956478710842532
-2.17072827619996511217
-2.17084691902812831898
-2.17096549328128762824
-2.17108399896911041793
-2.17120243610124408207
-2.17132080468731558653
-2.17143910473693102503
-2.17155733625967517497
-2.17167549926511327385
-2.17179359376278968696
-2.17191161976222790742
-2.17202957727293277657
-2.17214746630438515496
-2.17226528686605080409
-2.17238303896737061649
-2.17250072261776727700
-2.17261833782664481873
-2.17273588460338551442
-2.17285336295735032053
-2.17297077289788509447
-2.17308811443430949240
-2.17320538757592940371
-2.17332259233202629289
-2.17343972871186652540
-2.17355679672469115360
-2.17367379637972835127
-2.17379072768618053502
-2.17390759065323502242
-2.17402438529005825885
-2.17414111160579714976
-2.17425776960957994888
-2.17437435931051536997
-2.17449088071769303099
-2.17460733384018389813
-2.17472371868703939768
-2.17484003526729230416
-2.17495628358995585216
-2.17507246366402684501
-2.17518857549848032562
-2.17530461910227401745
-2.17542059448434610403
-2.17553650165361789348
-2.17565234061899159812
-2.17576811138935033441
-2.17588381397355767888
-2.17599944838046210904
-2.17611501461889123021
-2.17623051269765399596
-2.17634594262554514899
-2.17646130441133456301
-2.17657659806378234180
-2.17669182359162327600
-2.17680698100357705727
-2.17692207030834739001
-2.17703709151461799465
-2.17715204463105305166
-2.17726692966630386294
-2.17738174662900085821
-2.17749649552775670358
-2.17761117637116718981
-2.17772578916781123226
-2.17784033392624998271
-2.17795481065502682938
-2.17806921936266828510
-2.17818356005768265504
-2.17829783274856181308
-2.17841203744378120177
-2.17852617415179850013
-2.17864024288105406768
-2.17875424363997183264
-2.17886817643695884783
-2.17898204128040395844
-2.17909583817868091060
-2.17920956714014790734
-2.17932322817314183538
-2.17943682128598759107
-2.17955034648699141897
-2.17966380378444357646
-2.17977719318661788961
-2.17989051470177130909
-2.18000376833814524247
-2.18011695410396422190
-2.18023007200743634826
-2.18034312205675462337
-2.18045610426009561778
-2.18056901862561725025
-2.18068186516146722553
-2.18079464387577148798
-2.18090735477664265929
-2.18101999787217781801
-2.18113257317045894368
-2.18124508067954936408
-2.18135752040749819614
-2.18146989236234167819
-2.18158219655209739685
-2.18169443298476695148
-2.18180660166834083924
-2.18191870261078690874
-2.18203073582006501496
-2.18214270130411680526
-2.18225459907086660749
-2.18236642912822853546
-2.18247819148409627488
-2.18258988614635240921
-2.18270151312286264655
-2.18281307242147892822
-2.18292456405003632014
-2.18303598801635878601
-2.18314734432824986143
-2.18325863299350508839
-2.18336985401990046896
-2.18348100741519823842
